4
256 513
-0.06570913,-0.08669562,0.0031809958,0.034794003,0.029887307,0.037168283,0.057107344,-0.0010040876,0.019272357,-0.10592104,-0.037621696,0.05935813,0.010619865,-0.053665094,-0.063446015,-0.087603346,-0.042084664,0.014955624,0.020507313,0.049369503,-0.02470783,-0.04140845,-0.0811764,-0.05837062,-0.053889718,0.007030038,-0.07347942,-0.07110231,-0.10658497,-0.039444543,0.011028337,0.074545994,0.028599884,-0.0064821593,-0.079720266,-0.047018472,-0.029195312,0.05551073,-0.0042172954,0.05437816,-0.072902404,-0.04951384,0.022425804,-0.07364031,-0.08731968,-0.03713368,0.0016942949,-0.017541831,0.06510431,-0.021040834,0.025022503,-0.012574265,0.07707897,0.0063265534,-0.064289704,0.022471884,0.00748152,0.04266066,0.013650164,0.025612969,0.05978763,0.04655114,0.09674951,-0.022520732,-0.05561783,0.046987396,0.051411957,0.08579085,0.08646816,0.04093296,0.083165154,0.016926333,-0.064353265,-0.053744033,0.032695908,0.05074634,-0.0068135993,0.06170719,-0.007914405,0.10335733,0.05301046,-0.0024309654,-0.034147035,0.026152,0.046272647,0.037132256,0.10265349,0.003709936,0.043051463,0.08192817,0.02709078,0.0043968135,0.03566865,-0.042677402,0.062902614,-0.027079897,0.08210359,-0.0070424173,-0.047915068,-0.04573486,0.04283626,-0.055608492,-0.07030263,0.08147555,-0.0032740987,-0.0149078,0.08597671,0.07095793,0.08866244,-0.04272103,0.09862765,-0.041746978,-0.03350887,-0.029142944,0.102501184,0.033026274,-0.045363665,-0.014039306,0.036857605,0.030096333,0.0036933695,0.09805219,0.0933812,-0.04152079,-0.06694202,-0.009275877,-0.041235458,0.01768045,0.103567235,0.039521992,0.104576744,0.04210643,0.03598485,0.026461,-0.04668698,0.091155976,0.055278044,0.07084393,-0.06265339,0.06847077,0.065226175,0.018374192,0.100100614,0.06606269,0.04396697,0.015987892,-0.05023939,-0.07013265,-0.055722505,-0.01631639,0.00967504,0.07124532,-0.043416906,-0.039479394,0.029095445,0.048615888,-0.04655597,-0.011895013,-0.013600039,-0.027296413,0.054329433,-0.053870585,-0.018647457,0.034592226,0.027592346,0.014068748,-0.021925643,-0.012778591,0.06444373,0.032918345,-0.01353433,-0.08093844,0.04715102,0.03335619,-0.04102788,-0.048864048,-0.0521509,0.019657517,0.013865011,-0.10277753,-0.017325139,0.05294445,-0.036473677,0.05402849,0.04376393,-0.080352224,-0.037399933,-0.06014683,-0.008777993,-0.08855301,0.01773337,0.040207215,-0.07395892,0.05536136,-0.008236833,0.001025923,-0.100201935,-0.092457674,-0.010539425,-0.08885046,-0.034220513,-0.072165824,0.04909742,-0.08458248,-0.07599516,0.06708845,-0.00953255,-0.07148164,0.03884037,-0.017273908,-0.0057072435,0.012178789,0.023334075,0.059235517,-0.024787111,-0.038092893,0.058953997,-0.06523854,0.07291107,0.07728031,-0.00680557,-0.08377144,0.053740997,-0.07436751,-0.012602876,-0.09237591,-0.06532261,-0.06139908,-0.0982889,-0.009143179,-0.011768373,-0.0422242,0.077349916,-0.06449386,-0.08981677,0.074036,-0.011634515,-0.042858925,-0.038640253,0.027405681,-0.016116153,-0.07669697,-0.042068113,-0.09135418,-0.011616967,0.083276875,-0.086138844,-0.055810492,-0.031385932,0.045286868,0.021244558,-0.054790024,-0.052843142,-0.038290422,0.046434678,-0.046724398,-0.089326985,-0.095493056,-0.05110175,-0.025978835,0.040996194,-0.08922395,-0.038051143,-0.027435048,-0.098826766,0.009208337,-0.043856304,-0.07256553,-0.09332136,-0.099919,0.011969534,-0.026602622,-0.042616438,-0.02977535,0.042952493,-0.0886048,0.045735065,0.04646932,0.022695985,0.028888207,0.012026349,-0.01501152,-0.022605585,0.048588928,-0.09981308,-0.035786755,0.0070572784,0.063245505,0.08587023,-0.079940096,0.047973614,-0.07753727,0.07569107,-0.03369938,0.03858785,-0.056724463,-0.072901145,0.04088297,0.066669784,0.061428603,0.06555204,0.021670245,-0.007294032,-0.07379977,0.05013344,-0.06187041,-0.07292474,0.03776085,-0.03397541,-0.083157584,-0.015153184,0.007737265,0.063978,-0.053026445,0.0065202815,0.048355963,-0.03465158,0.06621435,-0.051859282,0.099887066,0.08246492,0.06412726,0.062034145,0.04292137,0.009170712,0.04439188,-0.044972315,-0.046822295,-0.054629795,-0.040566366,0.073953375,0.0071787494,0.05131013,0.03692023,0.050728094,0.016249593,0.04655791,0.067398086,-0.013661122,-0.012166212,0.088064484,0.05574921,-0.0270275,0.031572267,0.014246854,-0.02253254,-0.029470433,0.09440487,-0.0073073744,0.09188514,-0.049269475,-0.053180702,-0.057479333,-0.001358578,0.044202946,0.013987222,-0.014340322,-0.07492431,0.034280814,-0.075070105,0.06289946,0.024465716,0.049656812,0.03751267,-0.07764625,-0.025736779,-0.07312864,-0.07739286,0.08436337,-0.0013391066,0.06177646,0.009792866,-0.037240855,0.019672919,0.09702407,-0.040253833,-0.040345058,-0.017761033,0.090876974,0.016056418,0.08495667,0.09711323,0.001183992,0.07803245,0.063632675,0.06109711,0.079874314,-0.06741436,0.06693008,0.04138308,-0.013965706,0.087756194,-0.037029777,0.056583844,-0.06826255,-0.034458242,0.09199235,0.09461014,0.030945633,0.046902906,0.013930067,0.056044713,0.06857644,-0.025707198,-0.029909527,0.07695022,-0.066423416,-0.014843275,0.044106174,-0.0079056425,0.041638445,-0.0332363,0.018721882,0.0005544492,-0.027134435,0.0020936702,-0.0636063,-0.07639008,-0.06484957,0.047702976,-0.074139774,0.002320816,-0.10198752,-0.0048054694,0.057683982,0.078431375,-0.08819595,-0.035138387,-0.101695396,-0.059462633,-0.03170012,0.072502136,-0.06677682,-0.05071109,-0.035567433,0.0036028537,0.040011603,-0.015241654,-0.08239688,0.038958818,0.0122337565,-0.064930186,0.0042412304,0.020436162,-0.05896686,0.047217347,-0.015093474,-0.04674317,0.027589824,-0.0023421631,0.033785388,-0.030607684,0.0022758178,-0.073721975,0.027671413,0.04646092,-0.0015010706,0.0255266,0.0659418,0.061720073,-0.049350217,-0.06656086,0.047476962,-0.04796571,-0.005698853,-0.009917993,0.027149172,-0.0011867224,0.016187742,-0.05718135,-0.084958725,-0.040113572,-0.037808754,0.050216235,0.06301881,0.05803542,-0.044660013,0.024158228,0.07802097,-0.03767182,0.029155124,0.023004325,-0.02448886,0.014479173,0.035192903,-0.04833083,-0.010387329,0.070612304,-0.07758615,0.030902987,0.04558392,-0.00310052,0.07336728,0.025993044,-0.07239096,0.034332074,0.0749708,0.06799498,0.066379316,-0.028532162,0.06758928,-0.0016178684,0.0064361976,-0.0774248,-0.025138289,0.014060367,-0.07818523,-0.074702464,-0.04147972,0.07082897,-0.0055897026,0.0076714866,0.007193389814347029
0.03287064,-0.100592606,-0.008824745,0.027873473,0.07923091,0.04989692,0.068177685,-0.048442587,-0.058602124,0.10848834,-0.010834751,-0.045012835,0.016501157,0.0807833,-0.023773972,0.0022291346,0.051541895,0.084624805,-0.046182964,-0.016672999,-0.008140255,0.081988245,0.0961637,-0.00582305,-0.046457235,0.051902935,0.074996985,0.02385997,-0.061800603,-0.0023266017,0.0814665,0.009694655,-0.040103536,0.063009836,0.08517925,-0.038308445,-0.010670457,-0.016237142,-0.06399753,0.038445257,0.11086575,-0.054590132,-0.030308044,0.060641497,0.032407727,-0.010136015,0.08070296,0.045893732,0.03649072,0.007082876,0.00033071812,-0.08605126,-0.037830476,-0.08936779,0.056867234,-0.058181275,-0.04268954,-0.0039927918,0.03099894,0.07503217,0.033781912,0.09050251,-0.03179092,0.05664392,0.020035958,0.07841312,0.03939284,0.04581494,0.0427659,-0.0063965083,-0.035862055,-0.05400735,-0.07788711,-0.06455458,-0.044433933,-0.07057785,-0.03550058,0.06142668,0.03404925,0.023994861,0.0038245942,-0.025223017,-0.07744814,-0.09252324,-0.032097094,0.009413755,0.03119749,-0.03932743,-0.019091664,-0.0109482,0.026452277,-0.07505357,0.0009245447,-0.07915442,-0.029159773,-0.017262608,0.05465083,0.06642466,0.018115325,0.03130566,0.0073963557,0.06874416,0.04808872,0.03529164,0.045470204,0.018035755,-0.057053637,-0.083194755,0.048166312,0.006409004,0.055221166,-0.07841136,-0.054887503,-0.017305657,-0.07758467,0.08154143,0.016782602,0.061784707,-0.04839951,-0.008247415,0.03826843,0.0119495345,-0.03759098,-0.03166537,0.05145511,-0.005476094,-0.056772392,-0.048483092,0.0106313545,0.033289112,0.045449704,0.05092958,0.042560432,0.06255114,0.0025677788,0.04014799,0.022116786,-0.051686417,-0.065349445,0.02418958,-0.027377242,0.025736647,0.045419276,-0.09234684,0.0012571388,0.04462239,-0.07008696,0.06910157,0.048311383,0.072770216,-0.007771861,0.0024252776,0.0731097,-0.026059916,0.071623564,-0.002911155,0.06650529,-0.042009287,0.047560282,-0.074404314,0.034235273,0.09374515,-0.023675032,0.060416646,-0.05083381,-0.0056186225,0.060416203,0.052371703,-0.00950446,0.055413384,0.01893076,-0.07055606,-0.07269773,-0.032846067,-0.025020504,0.08146374,0.033948153,0.051150262,0.0023430106,0.053327035,-0.060663287,0.029722024,0.08509963,-0.07581306,-0.06267406,-0.048884857,0.030770896,0.016053695,-0.042498864,-0.011550488,0.062899895,0.057280343,-0.08957438,-0.027568888,0.017774247,-0.022765787,0.039893243,-0.0792709,-0.011757258,-0.03966739,0.0359292,-0.056340966,0.034058344,-0.03986688,-0.08552793,-0.002705185,-0.005464752,0.028909054,0.06979584,0.019226525,-0.058920007,0.06353821,-0.08323955,-0.061045077,0.014039181,0.052720256,0.06450389,-0.055373497,0.0337566,-0.07317689,-0.036632806,0.05515254,0.06777545,-0.0876775,0.0040741577,0.028115597,-0.035233255,-0.0398046,0.05995936,0.015175379,-0.013807592,-0.040673543,0.026790416,0.07468703,-0.069466494,-0.042183276,0.012369229,-0.07282319,-0.04395335,-0.05215743,-0.021552535,0.07557514,0.039749958,0.04836655,-0.07756499,0.04065556,-0.057212967,-0.087615736,-0.012076572,0.00065311306,-0.03127879,0.063789465,-0.028685115,0.01672419,0.08130085,-0.032786112,-0.0737263,-0.0058166245,-0.070074886,0.012723477,-0.045199636,0.033283964,0.0063903974,0.074497834,0.048329532,-0.034658074,0.04007669,0.10520614,-0.04831488,-0.07250496,0.061016094,0.00041549635,-0.061141662,0.058241498,-0.026990918,-0.10220358,-0.0010331724,-0.06256849,0.08362302,0.08942264,0.059277166,0.0036544988,0.09507525,-0.08658037,0.049713537,0.08056827,-0.06915013,-0.02268936,-0.015859356,0.008573855,0.010192893,0.0038035559,0.053655047,-0.017038433,0.08488626,-0.05118763,0.041582957,0.002598438,-0.019597627,0.08160761,-0.05748257,0.04422444,0.05804398,-0.07586761,-0.014312897,0.0604717,0.04606278,0.09023515,0.005624696,-0.06040609,-0.048391722,0.028439604,0.0409871,0.0458308,0.035253007,0.012144016,0.065863475,-0.08491753,-0.06267804,0.071311876,0.048491575,-0.04752217,0.042899583,-0.02652861,0.037692092,0.03875911,-0.06832758,0.0552094,-0.023450742,-0.045157235,0.08398995,0.041130908,-0.04714115,-0.0033921031,0.0038747322,-0.015466428,0.06599468,-0.047259003,-0.017684545,0.002967705,0.024558557,-0.09943133,-0.059890714,-0.092248775,-0.08366001,-0.037097882,-0.07229549,-0.011253787,0.0012850795,-0.09695922,-0.046393786,0.07482005,0.027336068,-0.06300703,-0.045068227,-0.066054225,-0.08106426,-0.07322955,0.058743283,-0.062198717,-6.633553e-05,-0.0665167,0.023900485,-0.013324655,-0.057798628,-0.029252818,-0.047449064,0.0042390777,-0.058091655,-0.030165715,0.017413398,0.02464097,-0.052424375,0.010660566,0.018986063,0.055682003,-0.010340786,0.05041467,0.051271323,0.051814515,-0.059950065,0.07919962,0.016192188,0.012318914,-0.03492581,-0.06619916,0.051288657,-0.045803268,-0.0738324,-0.004200653,0.026638051,-0.06875747,0.08876159,-0.079719685,-0.08411068,0.07154923,-0.039052136,-0.033172823,-0.044040874,0.047711104,0.04960427,0.01760746,0.089258015,-0.0019005927,0.07715583,0.016781958,0.0019563998,-0.059162833,-0.037444077,0.01731347,0.03693632,0.053860497,-0.077133596,-0.057523757,0.04817203,-0.012570398,-0.036442187,-0.052549895,-0.053807184,-0.017846962,-0.07370044,0.027401911,-0.012111632,0.0410555,0.017515583,-0.034767263,0.01059094,0.019272821,0.07457721,0.042256143,-0.043224324,-0.05522941,0.06469746,-0.00028195544,0.048368298,0.060477495,-0.00021122933,0.095476694,-0.0025772622,0.030947635,0.041633535,-0.005128733,0.06954174,-0.073844545,-0.08570204,-0.051835027,-0.048021954,-0.070205785,-0.010122312,-0.033789936,0.074584424,-0.057451725,0.004598383,-0.048248377,0.0062295636,0.021931542,0.06894928,-0.07629099,0.06308401,-0.055897072,0.061968163,-0.012514629,0.03597222,0.028506745,-0.038551565,0.08143339,-0.035693448,-0.07190213,0.08809769,0.07427536,-0.04645091,0.009238518,-0.012738049,-0.06598311,-0.011445623,-0.011530377,0.02784849,-0.05988528,-0.08972815,-0.052416917,0.05709325,0.056494243,0.050836083,-0.044912774,0.065604664,-0.06694972,0.08015708,-0.08757795,0.021325042,0.003931181,0.00018401945,-0.05248152,-0.062992,0.0014249643,-0.03526361,-0.0700695,-0.059664454,0.027977861,0.07693802,-0.08637607,0.030407531,-0.065879256,0.034922026,-0.076742485,-0.087757915,-0.020449067,-0.018363155,-0.06963487,-0.077686526,0.07841311,0.009582117,0.03174622,-0.0040173036977648735
-0.00083614077,0.04809753,-0.015180727,0.075155675,0.0068496033,0.027411407,0.094977155,0.03923581,-0.07108956,-0.09210146,0.064163364,-0.012442466,-0.009347954,0.02368529,0.04594646,-0.018781805,-0.03289913,-0.07997729,0.00052960066,0.045930035,-0.0058515607,-0.010503035,-0.09689556,-0.07445638,-0.07116836,-0.02014092,-0.082845174,-0.0075594904,-0.07994046,-0.059197936,0.043265946,0.05983258,-0.0437485,-0.016761834,0.09148047,0.008101196,-0.092519455,-0.07722047,-0.046860136,-0.0144085605,0.094064295,-0.0027957838,0.0607861,0.004786643,-0.043954402,0.08844554,0.013641393,0.08582582,-0.0036311392,0.06574669,0.06399227,-0.0631083,-0.032393493,-0.04485176,0.05392633,0.102169245,0.041483793,0.09097677,-0.019431433,-0.046384387,0.018769115,-0.0020483714,0.06857515,-0.038635504,-0.07781053,-0.049626607,0.040511217,-0.032420114,0.020311056,0.028415963,0.019725168,-0.006501078,0.05695015,-0.03121488,0.030201044,0.007430346,0.076471664,-0.058427017,0.014875975,-0.0070223194,0.06659872,-0.009617963,-0.057444155,-0.04034656,-0.010663215,-0.07411828,0.0070405216,-0.013970175,-0.021975914,0.035696376,-0.013210626,0.020101367,0.034806617,-0.06659401,0.044109672,-0.03607164,-0.014267398,-0.010930362,0.050526712,-0.05796915,0.0040877317,0.08499076,0.06515942,-0.030165343,-0.03506195,-0.031349517,-0.029208245,0.025554448,-0.051314037,-0.036431566,0.028862713,0.062423185,-0.04228827,0.058318533,-0.04623827,0.07858509,0.029657172,-0.0065188655,-0.02660707,-0.04373067,0.053375088,0.05720179,0.02555077,0.05165745,0.0591519,0.02979078,0.011144306,-0.008522667,-0.07264573,0.01577615,-0.047979344,-0.05924669,0.06303884,0.07363812,0.040227793,0.09426687,0.0131551195,-0.042377893,0.07591141,0.07318497,0.056675397,-0.05350989,0.08764734,0.020075152,0.0057035247,-0.0006453538,-0.07432801,-0.06826537,0.05988728,-0.040529605,0.07244643,0.035713244,0.015689561,-0.028603882,0.075972535,0.08492312,-0.06091111,0.03244829,0.086114965,0.010888596,-0.040073346,0.0095823025,0.06698459,-0.016737998,-0.05932208,-0.07170062,0.004276985,-0.0454563,-0.006581409,-0.03352726,0.0018894309,0.08661932,0.020053944,-0.055467702,0.07308893,0.08251034,0.014026114,-0.054189168,-0.004100423,0.024483226,0.07999064,0.008351182,-0.0744705,0.08662487,0.009606523,-0.06837921,-0.016174827,-0.048492372,0.06164569,-0.03298468,0.03141122,0.007056834,0.014168355,-0.037892163,-0.025926802,0.050040975,-0.066481836,0.011219635,0.07909753,0.05248297,0.006777759,0.016846355,-0.09285556,-0.074951485,0.025811404,-0.036276486,-0.05577721,0.07292896,-0.074811295,0.048313227,0.05138181,-0.047472652,0.0685825,0.066366345,-0.10117982,-0.09460472,-0.025347084,-0.040710907,0.04409958,-0.08742159,0.020039279,0.07057416,-0.039202802,-0.008696215,-0.0055799778,-0.096123844,0.044470437,-0.05967803,0.07788921,0.028944563,0.0672492,-0.04964945,0.07519771,0.046084072,0.022515243,0.081242874,0.04051112,0.011556719,-0.020480078,-0.06037519,-0.052913893,-0.04374719,-0.039060958,-0.0038014953,0.04995972,-0.08907668,0.05226939,-0.010695562,-0.011022093,0.044725075,0.03760042,0.07304646,-0.08819096,-0.027414339,-0.09237309,-0.07357506,0.0463501,0.083952524,0.0049395165,0.036419578,-0.037294388,0.042369097,0.09629283,-0.065675534,-0.083544366,-0.07189259,0.045960158,0.04664172,0.048739303,0.011256011,-0.04621076,-0.02387839,0.06236311,-0.029821336,-0.012360994,-0.08983657,-0.06507816,-0.055929203,0.04981636,-0.05365263,-0.055167414,-0.054445766,0.048211772,-0.012644798,0.02308578,0.081894435,0.054321017,-0.01941301,-0.051679775,0.089505285,0.06530896,0.081238344,-0.018263299,0.08072297,-0.044036347,0.094450176,0.049185984,-0.006844375,-0.036971968,0.045771334,-0.05842821,-0.023265027,0.07877623,-0.04284974,-0.028497657,-0.09114412,0.089228176,0.0072667734,0.021450775,0.085752696,0.015035816,0.013414357,-0.04778673,0.07073465,0.09263748,0.033503965,0.10905111,0.062017933,0.049405552,-0.024739593,0.058376573,-0.025970908,-0.0296385,0.06679366,-0.074318774,-0.044154063,0.03590861,-0.020239191,0.008551508,-0.045705937,-0.06589863,-0.043826975,-0.06549132,-0.061165735,-0.02415347,0.11149902,0.08085664,-0.06822298,-0.04036186,0.055197854,-0.07074701,-0.011170753,-0.09661321,0.061461642,0.046814296,0.030313428,-0.053227384,-0.0037155272,-0.05058924,-0.054541726,0.0032975734,-0.047654197,0.024728583,0.056858033,-0.04231339,0.076991014,-0.0019642636,0.030605046,-0.048674114,0.0037550612,-0.036864445,-0.044148516,0.03154993,0.08162823,-0.040148698,-0.0134754805,0.04847719,0.047629245,0.011728841,0.07317566,-0.04514357,-0.02018343,-0.062678,0.017608017,-0.048001535,-0.018234616,-0.069670364,0.06925286,0.07681294,-0.014915573,0.08230246,0.04925753,-0.03766964,-0.06198028,-0.08293759,0.020754173,0.07841442,0.024590451,-0.07270262,-0.086541496,-0.07026583,0.0778928,0.07189025,-0.015452013,-0.04422061,0.008257015,-0.041885033,0.012216803,0.0657891,0.08552089,-0.04854607,0.070249766,-0.07539993,0.07475753,0.0064341496,-0.07590463,-0.07107535,0.082228296,-0.06095754,-0.013325645,0.032525644,-0.06402874,-0.08891142,0.0032999902,0.034872368,0.068316124,-0.020450003,0.0027865141,-0.05750771,0.07561245,0.07806716,0.030875029,0.06617974,-0.07257462,0.034343705,-0.02287031,-0.079583846,0.070463575,0.06833533,-0.03369099,-0.046430238,-0.057789423,-0.012894058,0.06739489,0.017117925,0.025601137,-0.007427248,-0.0706455,0.066312045,-0.05048526,-0.093525015,0.0579269,-0.055230625,-0.045282975,-0.06628503,0.045398787,0.0034887732,0.07048326,0.07425099,-0.100206636,-0.0010149379,-0.027866913,-0.08777941,-0.02045404,-0.021491315,0.051952712,-0.083603434,-0.0075520077,-0.031353798,0.038464595,-0.090625614,-0.073920965,-0.0813401,-0.077706896,0.040924843,0.051353738,-0.027867308,-0.02832681,-0.0780663,0.026637964,-0.091693,-0.06822024,-0.004807286,-0.0086627165,-0.08851271,-0.039622504,0.016670689,-0.101298004,0.0066041783,0.05943578,-0.08193369,0.008341032,0.063470595,-0.10003563,-0.04687634,0.003657727,0.022213858,-0.09020671,-0.014642327,0.06681351,0.016984127,-0.015485785,-0.022570254,-0.04500958,0.0045175785,0.058911525,0.050173253,0.050413232,-0.026908344,0.038266685,-0.050834317,-0.057332266,-0.05837907,-0.083301574,-0.08932767,0.008613579,0.014969294,0.029409155,-0.038661905,-0.08688448,0.04891647,-0.024930658,0.010701701045036316
-0.034028888,-0.03497391,-0.013363957,-0.034917165,-0.09540928,-0.037345894,-0.04795331,0.029299255,0.07418913,0.0789103,0.0031047766,-0.08120421,-0.060857475,0.044098064,-0.03379618,-0.058372084,0.056346186,-0.076502375,0.0022532677,0.06432154,-0.007398812,0.024630051,0.0150769595,-0.05180901,0.055287413,0.014103179,-0.035705857,0.05483464,-0.016709749,-0.09263996,0.06684221,-0.067741394,0.016627062,0.017152082,0.01249972,0.05191923,0.0010744549,-0.047139022,-0.06399792,0.04806973,-0.07354715,-0.08249268,-0.0877616,-0.10497248,-0.010925576,0.02731671,-0.031198574,0.04896532,0.029662473,-0.027728496,-0.012495077,-0.011309272,-0.04030449,-0.04102386,-0.085827865,-0.071471155,0.013235562,0.0027094434,0.028944911,-0.099263616,-0.10054458,-0.08124448,-0.01751776,0.02928223,0.03889823,-0.06045108,-0.05827201,-0.064923786,0.07923302,-0.008954158,0.07053013,-0.06782016,0.041424837,0.042532224,-0.005197652,-0.062582694,0.007968158,0.03452105,0.048958007,-0.015663614,-0.067325644,-0.037556767,-0.025909314,-0.0706388,-0.019133506,-0.0976767,0.059256088,0.051725663,0.050927844,-0.03407844,0.06258675,-0.0244169,-0.048873622,-0.0025940076,-0.015421186,-0.04894828,-0.028668748,0.07086591,-0.041760128,0.0006322401,-0.059233043,-0.060445905,0.038852133,-0.06430969,-0.022411276,-0.030569425,0.06928406,-0.026703779,-0.064528964,-0.031247957,0.01897529,-0.034573995,-0.07687891,-0.09160942,-0.062739596,-0.062501535,0.05160539,-0.022186222,-0.018834936,0.012287262,-0.08054737,-0.06412547,0.040693365,-0.08977024,-0.08525412,0.025445005,-0.020131312,0.031163812,-0.036100894,-0.059939507,0.042132806,-0.061940975,0.021315996,-0.09124588,-0.06852922,-0.011972084,-0.051945027,-0.091580175,-0.025440654,-0.041550066,0.0065060128,-0.06840148,-0.049580134,-0.040297158,-0.08313903,0.008841214,-0.034694433,0.030552251,-0.03679093,0.078895606,-0.044424184,0.0525503,0.0017261925,0.05649523,0.037534103,-0.015589092,0.0072877035,0.04885689,0.034273673,0.04796224,-0.017912474,0.059291765,-0.023996182,-0.028013282,-0.032852884,0.047679175,0.05210949,0.023020582,-0.008360475,0.041507974,-0.055039987,-0.009789871,0.07965603,-0.017419321,-0.06395914,0.003629557,-0.054620385,0.035015058,0.068676084,0.0121603515,0.033123937,0.05873602,-0.04392014,-0.017652536,0.050200485,-0.08249746,0.06866514,-0.039200425,-0.055373535,-0.024198895,-0.0625509,0.032103635,-0.05986563,0.004610271,0.04611011,-0.025066048,-0.05482158,-0.0047699558,0.037464403,-0.009276467,-0.07931279,-0.06871948,-0.04914884,-0.012014619,-0.005310116,0.028781837,-0.004349809,-0.08828529,0.03856325,-0.09096248,-0.06769927,-0.026488028,-0.02575253,-0.06865036,-0.080607355,0.0029752317,-0.0750348,-0.07749817,0.040375013,0.0329288,0.066118,-0.025603836,-0.012831859,-0.07805859,-0.057543576,-0.035874747,-0.057105903,-0.032850396,0.012889024,-0.016896967,0.007890606,-0.019254893,-0.06374279,-0.058128953,-0.02085351,-0.081953056,-0.01124953,0.07880168,-0.017223105,0.061583355,0.07897267,-0.086035155,0.08484848,0.021194205,-0.009000995,0.026858993,0.06517276,0.041853156,0.03640703,0.021123644,0.08589238,-0.039673608,-0.07057928,-0.070437945,-0.07306947,0.08942231,-0.068129785,-0.07768619,0.070514396,-0.02316412,-0.051112838,0.09943946,0.006487212,0.036795318,0.033234388,-0.060588002,-0.037247553,-0.010928069,-0.008290356,0.03338635,0.015833803,-0.042392623,0.04064498,0.02330494,0.10378972,0.08086712,0.06832449,-0.053507578,-0.018308545,-0.09356777,-0.061361585,0.087723546,-0.026729627,-0.09735711,-0.025432952,-0.054464824,0.045279197,0.05028881,-0.07924925,-0.05723938,0.06995891,-0.027945474,0.069884196,-0.047032118,0.044711545,0.0744069,-0.040015414,0.023297874,-0.043450706,-0.017812822,0.011043248,0.018884968,-0.08587315,-0.0052495957,-0.05737452,0.028468851,0.04295509,-0.075187586,-0.052032005,0.033506814,-0.045516297,-0.0638272,-0.10158832,0.05669994,-0.09925088,-0.08513175,-0.08019361,0.042060837,-0.02936185,0.06629404,-0.056432083,-0.04382612,-0.009628985,-0.06705178,0.05037945,-0.060643,0.036865223,-0.013321408,-0.060515296,0.074976936,-0.025825946,-0.08053695,0.02083902,0.071019225,0.055918314,0.009289391,0.06467879,-0.079324044,0.06633184,0.053076718,0.04708565,-0.009789705,-0.06259247,-0.019226281,-0.056734174,-0.044662524,-0.060980737,-0.021118937,0.07034801,-0.0541703,-0.03899966,-0.08440493,-0.0660182,-0.008973127,0.060472872,-0.06219038,-0.083144866,0.019336341,0.048237745,0.062356673,-0.064184844,-0.023468321,0.06212882,0.07231898,-0.04285786,0.007140687,-0.017824817,-0.029830113,0.030733328,0.06761268,0.052493077,-0.055044208,0.052110843,-0.078053474,-0.040919617,0.063746855,0.0331509,-0.09536404,0.059972286,-0.07314767,-0.10625365,-0.06411778,0.058105342,0.03612004,-0.013465025,0.04394768,0.06524766,0.050423402,0.04342422,-0.041820716,-0.07581339,-0.055512507,0.016292803,0.014542357,-0.06641232,0.0016999054,0.032226905,0.06283245,-0.05311026,0.055526067,-0.030553313,-0.012468083,-0.0704575,-0.09394096,0.0074031753,-0.027050152,-0.075401485,0.032523066,-0.0773971,0.0679663,-0.084013015,-0.07868902,0.07325725,0.03599436,0.0139510995,-0.0954871,-0.049577706,0.033607915,-0.060034603,0.05392193,0.0064982004,0.035715707,0.028354589,-0.048361856,-0.098507226,-0.032265883,-0.039396305,0.015069204,0.015269938,0.0057565495,-0.0768776,-0.07928534,0.058308925,0.012737379,0.018812656,-0.040230576,-0.042647995,-0.08682195,-0.0024924832,-0.07992712,-0.059866663,0.015121324,-0.06611858,0.062513955,-0.03972404,0.028461682,0.013543808,-0.039733194,0.020081231,-0.09617289,-0.009797062,0.0044022063,-0.0016504533,0.07551139,-0.07186818,0.03528844,-0.03256647,0.07296906,0.049533654,-0.045548424,0.050320253,-0.07023601,-0.08001008,0.03644083,0.0058841547,-0.07483841,-0.0833163,-0.022280391,-0.024567135,0.008438872,0.020205466,-0.098698065,0.07310031,-0.073951855,0.05764085,-0.06690098,0.037036072,-0.0985228,-0.05209423,-0.0108634755,-0.063036315,-0.06621299,0.056908865,-0.069344066,0.007415093,0.037228387,-0.010231822,0.05908414,-0.07775222,0.06051535,0.059541717,0.045101494,0.078665346,-0.01078689,0.059373472,-0.012272204,-0.045940317,-0.037548475,0.03485689,-0.082450375,0.08387706,0.0005181437,0.0104919085,0.009925762,0.081003755,-0.053304855,0.038580474,-0.00789584,0.009659788,0.0024370241,0.07430635,-0.033571713,-0.003133428283035755
-0.025316559,-0.036828946,-0.020553757,-0.005294959,-0.011438852,-0.012330788,0.05118739,-0.055100124,-0.0289307,-0.036504496,0.0061893775,0.03497725,-0.10538974,-0.10312412,0.009344917,0.06952046,-0.008298324,0.01513645,0.05059512,-0.06826936,-0.030091237,0.044731215,-0.05391926,-0.039577942,-0.042926867,0.027027534,0.0528057,0.07074707,-0.012751661,0.081117846,0.039027996,0.082807586,-0.07409606,-0.057920434,-0.057908934,-0.032649633,-0.064952604,-0.033808623,0.000736887,0.034756206,-0.07604331,-0.018757151,0.06728905,-0.014232732,-0.028973032,0.06657913,-0.089527294,-0.06223223,-0.07173966,0.0614219,0.09805512,-0.018037565,0.013604116,0.08001684,-0.047384795,0.040711552,0.002088535,0.092751615,0.050060216,-0.07499665,0.046946764,0.028350595,0.0049977545,-0.0038647382,0.021102184,0.059762403,0.0013745746,0.096271046,0.041204475,-0.030105332,0.06877892,0.018396681,-0.038980275,0.005780824,0.015198698,-0.042606436,0.09651359,0.10058282,-0.06836329,-0.0048779934,0.075840734,-0.017841175,0.08044806,0.050575826,0.084240444,0.085651666,0.020072622,0.020535178,0.03226186,0.0871573,0.08646057,0.08706199,0.018923473,-0.06822092,0.04565788,-0.06704665,0.014279752,0.07746201,-0.019644937,0.049540225,-0.037580997,0.026261065,0.08648419,0.045562707,0.09977307,0.040579606,0.099999264,-0.0051623615,-0.040599205,-0.01698855,-0.06617317,0.098305,-0.001360056,0.049719065,0.01918736,0.020324994,-0.007073664,0.08406998,0.08853031,0.03256304,0.10590006,0.024048958,0.002460276,-0.050705496,0.06478116,-0.022616617,-0.0480064,0.046998702,0.070850596,-0.024474012,0.013892907,-0.071627855,0.028261337,0.04602288,0.06907256,0.0055324095,-0.06866954,-0.071911015,-0.058252543,-0.07648538,-0.030067416,-0.024416804,0.009651173,-0.023531506,0.01118895,-0.0069318586,0.01724833,-0.0013950968,0.0072192135,-0.06860212,0.02310897,0.0028927939,-0.03686059,0.07283703,0.052869063,-0.037783798,-0.0040351674,-0.06829821,0.06784,-0.047362924,0.038002834,0.05659623,0.0055318885,0.076925844,0.026626468,-0.046157576,-0.10043506,-0.008931979,0.025445906,-0.09029441,-0.06960289,0.04312055,-0.025291972,0.066155925,-0.056401595,0.042476647,-0.09524952,-0.03382631,-0.08764487,0.052797016,-0.014366078,0.044739045,-0.017869042,0.03917787,-0.03879667,0.076228485,0.020915784,-0.014356808,0.044749457,-0.015285659,0.029071013,-0.020932417,0.07326441,-0.055919252,-0.039491113,-0.051630326,0.055713918,0.065404154,0.037094753,-0.029814396,0.051676434,0.011831977,-0.040618245,0.028082285,0.031328842,0.06350505,0.057770155,0.016571587,0.058907703,0.012291488,0.03594746,-0.01923008,-0.009783826,-0.028409727,-0.080398746,-0.03898344,-0.045071512,-0.08929089,0.0041446984,-0.021556703,0.05514623,-0.056035824,-0.08336999,0.07617053,0.009022288,0.08104604,-0.050510086,-0.0050237905,0.02770983,0.08229357,-0.023061007,0.017383454,0.028307082,-0.08308837,-0.028950606,-0.008612551,-0.003149517,-0.05475709,-0.039232448,0.028239772,0.057731774,-0.008645974,-0.029516658,-0.042405397,0.07370554,-0.08053044,-0.030582692,0.051492635,-0.017431527,-0.044259217,0.022498002,-0.092451096,0.005849459,0.022944082,-0.051720522,-0.047154307,0.043665424,0.08531975,0.10276715,0.09663113,0.019889949,0.11172439,-0.03298443,0.052614886,0.07158522,0.074750006,0.040702417,-0.031530272,-0.08084488,0.042364452,-0.026982585,0.08626481,0.098593004,-0.05946091,-0.09240407,-0.08088673,-0.04144943,0.013694865,0.018041316,-0.0742195,-0.018167848,0.039711293,0.008544722,0.0010879004,0.050388284,0.03729935,-0.046289936,0.058583487,-0.021307826,-0.100144565,-0.028213028,-0.08442682,-0.006125951,-0.031269874,0.008794747,-0.023429038,0.0017662004,-0.10498556,-0.05560051,-0.030291503,-0.042388566,0.06909792,-0.08103183,0.01011344,-0.01430784,-0.035897613,-0.07911009,0.00816164,0.05057975,-0.07122133,-0.08936565,0.07630823,0.028535873,0.08305703,0.08133935,-0.042453576,0.08838229,0.08471108,-0.06661282,-0.03288754,-0.025080955,0.034342553,-0.017424783,0.090277076,0.05321885,0.06784871,-0.0069221044,-0.047679935,0.022743708,-0.0061093075,0.05501871,-0.044273674,0.041673202,0.03610811,0.07162699,0.039583404,0.0072877253,0.008871213,-0.029506067,0.025532268,0.07158587,-0.0650021,0.07253483,0.06830408,0.047555536,0.0047436072,0.04838447,-0.08473417,0.06844749,-0.06518498,-0.06527037,-0.0463734,0.01352091,0.06009513,-0.044575386,0.026274757,-0.026008697,-0.055170454,0.0032744422,-0.047260333,-0.07134749,0.054087404,0.010617046,-0.009015109,-0.032158766,0.05426393,-0.05730082,0.083736666,-0.0151570225,0.04076969,0.044355694,0.019102601,0.045318734,0.030025302,0.09310969,-0.019890103,0.05397419,-0.023032725,0.07385406,0.01973454,0.014534805,-0.06024317,0.073663935,0.017986944,-0.0075751613,0.064980075,0.07550665,0.048505493,0.049204692,-0.013127352,-0.03727835,-0.011619276,-0.04131146,0.061783142,-0.040466696,0.053598374,-0.049552888,-0.03969199,0.0050234795,0.074924745,-0.058582403,-0.02158229,0.007724963,0.02013132,0.023106588,-0.08563019,-0.07375561,-0.021152481,-0.053827267,-0.085210375,0.02117564,-0.035466183,0.025161108,-0.07809664,-0.014378725,-0.026112737,0.08827056,0.07594675,-0.04974621,0.06726032,-0.041185703,-0.00042439916,0.058573037,-0.052544475,-0.045438457,0.031245017,-0.049677573,0.07379098,0.004137235,-0.07004063,0.0057236175,0.07625031,-0.075464696,-0.072590694,-0.077744976,0.07378406,0.07328409,-0.04407295,0.009828877,-0.07914272,-0.047998205,0.03644879,0.05334953,0.063677266,0.02099404,0.05695949,-0.034873523,0.048257854,-0.015153257,0.07305583,-0.005441452,-0.07847629,-0.008574095,-0.05767223,-0.005394032,-0.086580165,-0.08969339,0.073851965,-0.03523443,-0.022601262,0.047822308,0.010628814,-0.076798305,-0.0679756,-0.032391414,-0.060948726,0.06692694,-0.037886754,-0.036011368,0.08387279,-0.032841746,-0.0044781165,0.06876427,0.033639565,-0.07638524,0.041252576,-0.07121585,-0.019863067,-0.07472004,-0.09149565,-0.036729712,-0.041156773,-0.015027645,-0.03064135,-0.040906105,0.012118505,0.056583103,-0.0075153694,-0.022961536,0.06279204,-0.05439646,-0.017194087,-0.024287395,0.047226045,0.013532318,0.035287563,0.021624299,-0.03768888,-0.06427256,-0.06760237,0.040009093,-0.055664856,0.05086368,-0.06394926,-0.034699835,0.00081459945,0.053579316,0.014841348,0.04720929,-0.016453946,0.053572915,-0.0938874,-0.010328005999326706
-0.046600223,0.0394124,0.07364287,0.037431393,0.048984773,-0.018414427,-0.021048803,-0.056911346,0.012588091,-0.07573964,-0.086444214,0.033092916,-0.086514175,-0.062723525,0.007938759,0.03165351,0.062333748,-0.048451435,0.051900454,0.011903477,0.014600815,-0.08410893,0.08353632,-0.0014693363,0.023667388,0.014599472,0.088370375,0.027207226,0.091102645,0.046042945,-0.0753298,-0.01745326,0.005202836,-0.035344314,0.03235204,0.074258655,0.031070828,0.057199176,-0.086199395,0.025092952,0.06715306,-0.060840808,-0.06350497,-0.053593356,0.07275552,-0.05226771,0.06520034,-0.03989759,-0.054075733,-0.06481694,-0.047054294,0.030260213,-0.07923474,0.017137142,-0.02425528,-0.03331725,0.015752511,-0.052173734,-0.06598845,-0.037905302,-0.0485636,-0.06376456,-0.08098072,-0.01937792,0.010240701,-0.052620422,0.061004404,-0.030543936,0.036469672,0.018161893,-0.02741243,-0.032261666,0.09160105,-0.041590407,-0.029622344,0.068944775,-0.06332247,-0.06667452,0.019258987,-0.05325786,-0.058998823,-0.047355186,0.006958487,-0.086767025,-0.06244508,0.02942657,-0.08376405,-0.06968941,-0.031736597,-0.015002973,0.02200726,-0.07050413,-0.0393698,-0.052219313,-0.02901086,0.021469647,0.0027917179,-0.007380696,-0.007660665,-0.047401603,-0.03740654,-0.015399493,0.018924069,0.056619424,-0.02488829,0.03969222,0.007704432,-0.058643155,-0.028568015,-0.026478924,-0.033889543,-0.01876282,0.08536108,-0.05084983,-0.026104039,-0.06965506,0.022588242,-0.024301242,0.026705552,-0.036466386,0.07136034,0.037152234,0.064221874,0.06007581,0.074392416,-0.037020717,-0.0011119695,0.050470125,0.091158114,0.0721523,-0.036900546,0.068158485,-0.07117186,0.07551235,0.042146876,-0.07642714,0.065142676,0.050640624,-0.07901828,0.08485224,-0.038349207,0.0025328961,0.0027988555,0.00016009594,0.09162775,-0.05754426,-0.04802116,-0.07026068,0.04088007,0.084080204,0.08307765,-0.035830613,0.00059470115,0.08263157,-0.051131755,-0.009919824,-0.059526503,0.022204293,0.071879774,0.049228985,0.02582414,0.043617256,-0.07995629,0.055280183,0.0376468,0.040318444,0.029224196,0.0227688,-0.057931226,0.07754822,0.100291505,-0.03846127,0.047638137,-0.008898626,-0.07816389,-0.06538389,-0.033748005,-0.016494485,-0.065037616,-0.0713304,0.02324001,0.06312347,-0.025939686,0.022346724,-0.067633666,-0.032681618,-0.01927334,-0.025769409,0.037832502,-0.07132157,-0.0056449454,0.029249324,0.06549629,0.058724087,-0.0023856144,-0.05584265,0.025717275,0.03489635,0.06398113,-0.072726466,-0.05544673,0.08637999,0.009534103,0.023898277,0.073482245,0.056350198,-0.014159761,0.0210664,0.056452464,0.034574855,0.08134036,-0.0220659,0.009206419,0.0392861,0.008044775,-0.028562589,-0.014968668,-0.0048973043,-0.052226555,0.019099314,-0.09337023,-0.03921491,-0.033772875,-0.06994193,-0.05409201,0.044920266,-0.07921024,0.021324754,0.009562063,-0.04977457,0.015033784,0.024527127,-0.03695947,-0.05626755,-0.019489298,0.013349163,0.043319646,-0.061954346,0.0050868867,0.028359395,-0.049140763,-0.09528715,0.067732275,-0.04980659,-0.09396999,-0.089107394,-0.054246537,-0.002636541,-0.04750767,0.049399562,-0.014397092,0.05149201,0.05856829,-0.07811507,0.051495638,-0.03639675,0.065441236,0.0042052474,0.13077144,-0.04106725,-0.043055046,-0.046787165,-0.062805474,-0.08655853,-0.006700983,0.049527287,0.049677055,-0.03849017,-0.018131927,-0.05031352,-0.022934016,0.0866716,-0.09513076,-0.075504184,0.010683766,-0.0023964373,-0.03295692,-0.06852525,0.017735582,-0.012658622,-0.060792077,0.031193977,-0.05345594,0.010720491,0.04514917,-0.034024585,0.004217395,0.09157106,-0.07657013,0.05166121,-0.017954245,-0.026449818,0.029385442,-0.038909636,0.0705328,-0.020170607,-0.07817549,0.070732415,0.05545005,0.0625772,-0.056568783,-0.039270744,0.0076356414,-0.06716101,-0.015523997,0.07111371,0.08026444,-0.05104575,0.0049733934,0.082334295,-0.017154053,-0.026504263,-0.077022724,-0.029377885,0.059611242,0.052737955,-0.045789074,0.059211016,0.06599246,-0.09301138,-0.07462624,0.06933257,-0.045146637,-0.048941202,-0.043246318,0.046887428,-0.022429226,0.096879594,-0.030174205,-0.021650983,-0.06530388,0.07020949,0.034239523,-0.02165347,-0.0034955302,0.09181225,-0.009539306,-0.08440167,0.046069108,-0.013817019,-0.06902029,0.041933637,0.03255682,0.06827952,0.009800655,-0.085575275,0.05421154,0.09018986,0.0801629,-0.08729849,0.011399985,0.07491316,-0.08909271,0.052917678,0.032841757,0.00045086784,-0.0025141418,-0.01236017,0.08925439,-0.04253257,-0.08806596,0.0012356935,-0.08227793,-0.079533726,0.06821231,0.09027319,-0.0088674305,-0.070065804,-0.082194984,0.07944155,0.049507022,0.063569434,0.036290027,-0.07064229,0.03150054,-0.05395975,0.038240265,0.02130639,0.01678308,-0.024104273,-0.031982724,-0.06753594,-0.014361874,0.0037717687,-0.027856814,-0.039325114,0.011758937,-0.04368847,-0.044291213,0.046263974,0.08368405,0.0013090136,0.014177277,0.059888475,-0.024957145,-0.055582646,0.076510765,-0.049546402,-0.06444997,-0.054730095,-0.061443236,0.06624754,-0.01328515,0.073780775,0.014288494,0.041845083,-0.020942874,-0.038928796,-0.009018796,-0.039963048,-0.015768021,0.032094818,0.06697266,-0.021769423,-0.06565256,-0.010468046,0.0140583925,-0.06297733,0.015801515,0.015391543,0.05040461,-0.048276935,0.049278293,-0.07860728,0.008656095,-0.012464801,0.039156105,0.08153825,-0.04725463,-0.019669835,0.07009651,0.004494104,-0.06805712,-0.059895262,-0.050582062,0.017305296,-0.055922113,-0.0072808787,-0.06031471,-0.030149687,0.042530417,0.02875573,0.010193748,-0.0666313,0.07853594,0.041753754,0.077520505,-0.00355366,-0.0029480122,-0.035487328,0.080633745,0.03284131,-0.068576984,0.093989216,-0.07923202,-0.05406995,0.0091919275,0.045809496,-0.018233333,-0.03648801,-0.048429348,-0.017494565,0.0100403335,0.05347937,0.0650441,0.024809863,-0.065517,0.021612871,0.07988627,0.050492227,-0.084215365,0.07333301,0.08424729,-0.024186648,-0.01102429,-0.035752743,-0.041596252,0.024260566,0.030729307,-0.07415964,0.019195363,-0.0037642051,-0.09282235,-0.02145696,0.024594206,-0.060208064,-0.04351369,-0.071964666,0.041523583,0.06585983,-0.051565886,-0.06645465,0.05655426,-0.07129977,-0.092081405,0.012866121,-0.024445822,0.050368488,-0.026701106,-0.07805514,-0.0028936237,-0.088903226,0.0018073838,0.07446827,0.02976824,0.059198994,-0.04376445,0.08296369,0.017224193,0.08305036,-0.01432506,0.07042767,0.024264907464385033
0.00049928494,-0.030628605,-0.010556157,0.008508498,-0.06580914,0.034409072,0.026888099,0.09384809,-0.055925343,0.09122287,-0.041908965,0.097846694,-0.039949104,-0.05346351,0.113270015,-0.06414236,-0.057873525,-0.08199542,-0.050514117,-0.010662852,0.06433113,0.049796306,0.083376266,0.010673013,-0.07263791,-0.09773378,-0.09727875,0.060002718,-0.026640307,0.041208,-0.025180252,0.007142408,0.0654145,0.078605264,0.0067416816,-0.014534756,0.07602065,0.037826512,-0.00940639,-0.023915077,0.0392738,0.1020937,-0.0036699434,-0.035334285,0.08197223,0.09267602,-0.029080836,0.031035403,0.01218818,-0.056362923,-0.052881453,-0.047006328,0.045319587,-0.047443382,-0.038338237,0.06461989,0.07938338,-0.055342253,0.052034233,-0.08726158,0.025994167,-0.057343997,0.09360269,0.051702004,0.07440217,-0.029683383,0.0031941147,-0.045736328,0.046918992,0.088404454,0.052954827,-0.05663104,-0.0639326,-0.048658,0.067804456,-0.07281251,-0.07641933,-0.07852817,-0.009540752,0.03251912,-0.101029955,-0.052420095,0.041700665,0.027156526,-0.015516035,-0.02604753,-0.09063856,-0.00645547,-0.0719,-0.038861807,0.09278165,-0.0073224218,0.002491354,0.044775624,0.027925128,-0.044473927,-0.023441391,0.0002147321,0.033761706,0.01960595,0.021063646,-0.015692135,-0.032992177,0.030127613,0.02991008,-0.07009502,-0.07188795,0.042510644,-0.0111965565,0.077668756,-0.050121102,-0.013848416,-0.088537835,0.010396408,0.028724272,-0.056355573,-0.0154476855,0.036922283,-0.07267275,-0.017661009,-0.07798465,0.019449702,-0.014618231,-0.0742882,-0.014875234,-0.02065098,0.0068164715,0.059369132,-0.09684508,-0.003228101,0.033169083,-0.08648213,-0.010827078,0.031645425,0.0012217392,-0.02610889,0.076408856,0.03726212,-0.07567657,0.06698408,0.026938746,0.034824997,-0.027114168,-0.05505742,0.0366512,-0.06535405,-0.084177114,-0.040861588,0.014936168,0.06488935,0.05307245,-0.052954722,0.016753316,-0.0595824,-0.020352185,-0.004680825,-0.07305114,-0.009788338,0.03860132,-0.00477809,0.037660867,0.07432261,0.0004435593,0.04550149,-0.046313066,0.035416894,-0.05577936,-0.084961616,-0.07049372,0.018178917,0.00085041864,-0.07940917,0.05652037,0.020924889,0.061644424,0.014734808,-0.024761809,0.032536965,-0.028189152,-0.04222939,-0.04492865,0.06296847,0.036352422,0.044371117,-0.06083415,-0.009842201,0.022456968,0.06460816,0.045656525,0.027501334,-0.02471332,-0.011431701,0.047891,-0.018128034,-0.031074194,-0.009748209,-0.08061759,-0.015332229,-0.08849825,0.0016377539,-0.06774651,-0.07325091,0.047154464,-0.04032681,-0.053502847,0.015607629,0.042022426,-0.026639767,-0.040867664,0.076360926,0.010986951,0.06767149,-0.03140965,0.027951445,0.042197887,-0.009423995,0.06267436,-0.0366816,-0.05816068,-0.061804287,-0.089005716,0.059576746,0.068525724,0.07338903,-0.0054861344,-0.03545975,-0.06240698,0.026189096,0.050277457,-0.033409312,-0.088208646,0.004373993,-0.0889367,0.07639718,-0.082508795,0.051880486,0.031764377,-0.083580315,-0.006016826,0.047506016,0.037849355,0.043256536,-0.07422226,-0.03387946,-0.08342634,0.07112689,-0.027009707,0.036537834,-0.08673416,0.062220633,-0.04694724,-0.033908114,0.04064043,0.004308938,0.00935462,0.069520794,-0.07767624,-0.04315353,0.0067216014,-0.037458066,0.005463714,0.024280908,-0.040978577,-0.076862596,-0.035711814,-0.036272828,0.03923543,-0.013844414,-0.02429333,0.006917019,0.039491374,-0.029632948,0.039338917,-0.079407595,-0.0164569,0.031373467,0.06863281,0.11629051,-0.02442555,0.02015507,-0.02143053,-0.028241789,-0.05672599,0.038117617,-0.040261414,-0.06073635,0.0875597,0.025835432,-0.06528428,0.09999816,0.08739345,-0.026479594,0.08807198,0.08322065,0.024497665,0.06999243,0.038471512,0.0321784,0.09706239,0.033784088,-0.045232505,0.035096526,0.030528417,0.033902556,0.043454383,-0.015394961,-0.01171283,-0.03759603,-0.0076391497,0.061189696,0.05398945,-0.06997653,-0.010609379,0.039641354,0.012380156,0.01069457,-0.05205024,-0.046343606,0.040694214,-0.027788235,0.074149035,0.03621718,0.023630418,-0.058238078,-0.07332496,0.08344902,0.017761633,-0.031625938,0.063391596,-0.0023239003,-0.08829201,0.05013321,-0.09378168,0.016054679,0.033871025,0.06857076,-0.003897561,0.02592763,0.07552462,0.079189956,0.0006781151,0.019857742,0.0367106,0.041306682,-0.041919805,0.118741326,0.107405424,-0.065152355,0.074873686,0.08495318,0.06264476,0.07080361,0.012377574,0.056531716,0.05469991,0.021626167,0.008812105,-0.019562976,0.07434729,-0.05887208,0.033108186,0.010295814,-0.03470377,0.06339744,0.051311497,-0.02101276,0.09182719,-0.032652386,-0.04846987,0.057720486,0.05797026,0.025254043,-0.023613129,0.030352348,0.022787226,0.0061992193,-0.025618028,-0.02645761,-0.03265115,-0.07193595,-0.08321886,0.07618719,-0.078129135,-0.017820064,-0.036182493,0.07290436,-0.0689907,0.032047432,0.024801033,-0.029696139,0.037652638,-0.012984835,-0.07761611,0.046647605,-0.05667222,-0.0064258925,0.056040786,-0.05246882,0.040149353,0.0474388,0.04607493,-0.066476785,-0.051633,-0.07880528,-0.07016944,-0.08820606,-0.02633593,0.07504618,-0.056735586,-0.071826294,0.051805638,-0.085451975,-0.045495015,0.039307207,0.07190495,-0.084331706,0.055103585,-0.07275321,-0.015676513,0.061545383,0.02008927,-0.0054081124,0.01622124,0.024352815,0.017434599,0.027887903,0.056017995,0.066415176,0.03001821,0.07295867,-0.060999706,-0.035868447,-0.029391006,0.100333266,-0.014605523,0.040548593,0.08722379,0.09631796,0.06391511,-0.013000917,0.0068770424,0.027587567,0.07283886,0.09455194,-0.007871307,-0.05520853,-0.035470746,-0.020680897,-0.032894675,0.0829368,0.017406644,-0.025366556,0.07136805,0.001396381,0.0033525075,-0.059850056,-0.028116195,-0.0537723,0.017441003,-0.08022755,-0.04317919,-0.08925254,-0.044998378,0.041838743,-0.025155718,-0.08378666,0.065351255,-0.043625627,0.0004327164,0.0008663799,-0.055988867,-0.077097096,0.07735781,0.055692527,-0.08834012,0.083019696,0.070158154,0.075950935,0.03248529,-0.027913142,-0.049930736,-0.06913171,-0.048809595,-0.07881174,0.06668023,-0.0450348,-0.04014698,-0.004888633,0.07460621,0.042315025,-0.056797028,-0.04500874,-0.05994369,0.010283952,0.030152718,0.009366519,0.09121153,0.0902318,-0.030775908,-0.04040272,-0.049850658,0.03396007,-0.015230438,-0.017479187,-0.08099843,0.022317251,-0.04851348,0.06991587,0.044476602,-0.05863657,0.073956385,-0.0015120462,-0.007495471276342869
0.05402737,0.054586444,0.053065155,-0.015695363,-0.106315844,-0.0033519121,0.052871592,0.027955046,0.019124933,-0.05088872,0.07875843,-0.020746678,0.022168396,-0.07643997,-0.00079310976,0.008222039,0.06555984,-0.029439975,-0.07377503,0.08881415,-0.006266271,-0.005145346,-0.010511412,0.0005871496,-0.016391791,-0.0033734292,0.055973142,-0.0060295514,-0.06604466,-0.078250825,-0.05019815,-0.10082759,0.06112127,0.06866365,0.034529604,0.011808163,-0.033972785,0.035430957,0.025530959,0.07355855,-0.05889832,0.044921394,0.07073869,-0.071373366,0.047075532,0.0027388693,-0.058502626,-0.0045877118,0.04580697,-0.05324402,-0.036259238,-0.07730883,-0.010018284,0.055258006,-0.07108997,-0.052971795,0.042096194,-0.042837158,0.04099997,0.050639194,-0.0004944313,0.08223833,-0.047066685,-0.011731512,-0.062350694,-0.0707256,0.06982678,0.042235564,-0.015617163,0.038573746,0.08225796,-0.043059193,0.052283913,0.044027444,0.07755825,-0.07941953,-0.0066687344,-0.074235566,0.033576276,-0.016134623,-0.0040927744,-0.04206393,0.08188062,0.05414085,0.011192715,-0.045161206,-0.019468252,0.0109081175,-0.041480433,-0.031741116,-0.026543297,0.01192831,-0.053616155,-0.038237076,0.028369972,-0.050006997,-0.06918472,-0.06640349,0.004287193,0.014035517,0.06589986,0.03395805,-0.052242704,-0.07850759,-0.037469286,-0.086811,-0.005673317,0.064107336,-0.059507795,0.028713394,0.04148393,0.06936761,-0.02066248,0.053949088,-0.0046859584,0.033353746,0.008898628,0.021794435,-0.043428347,0.056199383,0.026179807,0.08476961,0.086597815,-0.032451484,-0.017459407,-0.029832698,-0.0767346,-0.069378264,0.04693902,0.031608067,0.055939484,-0.04594515,0.012630419,-0.049069844,0.034249693,-0.05030815,-0.057594217,0.0089649875,0.025859326,-0.054025296,-0.042619325,-0.012118573,-0.08029094,-0.059562262,-0.04365877,0.025525384,-0.0733801,-0.038659245,-0.0031745136,-0.088517375,0.048226275,-0.056294832,0.038825817,-0.056818664,-0.0066815885,0.07340413,-0.033917353,0.07884713,-0.07500397,-0.001315133,-0.07733966,0.0030409622,0.072809175,-0.05416479,-0.005986989,-0.09186654,-0.07907812,-0.053568758,-0.047224723,0.03825815,-0.0842058,-0.0109222075,0.05322821,-0.020970182,-0.045744903,0.080704205,-0.060325377,-0.08159666,-0.06700925,0.051553227,-0.017173938,-0.012791305,0.04461231,0.072687246,-0.07400474,0.010984852,0.082168266,0.0838918,-0.085953034,-0.081889465,0.015654925,0.029207028,-0.039768074,0.028766647,-0.06557933,0.08004091,0.06320367,-0.042327728,0.046982624,0.04473927,-0.04472285,0.047048036,-0.054980733,0.05325034,0.020040248,-0.023402784,-0.050299276,-0.071132265,0.09431051,-0.027685324,-0.0049421615,0.029572997,0.019274712,0.028058698,0.010558731,-0.044003535,0.035324756,0.027454047,0.045627046,0.038405173,0.071097,0.021363474,-0.015924089,-0.035555225,0.002925425,0.015353834,-0.034475725,-0.011775821,-0.051172882,0.05137725,-0.022546317,0.004854464,-0.004855161,0.070291944,-0.03171726,0.030033601,-0.017696792,-0.015511694,0.081345536,-0.0016690183,0.055117447,-0.001088502,0.0008402693,0.023826832,-0.03528237,0.05117944,-0.011494326,-0.05869632,0.054090936,0.018505933,0.08545771,-0.023192013,0.051343262,-0.03367926,-0.026039409,0.08520277,-0.045740962,-0.03326789,0.05446767,0.06423936,0.054043327,0.045150917,0.016710624,0.0022329614,-0.073567264,0.07096822,0.046113208,0.006008449,0.050435994,0.104677044,0.07629158,0.10735746,0.08236132,0.020454649,0.038981583,0.08220249,-0.071635194,0.07286014,0.06511719,-0.027392484,-0.06450596,0.044482905,0.075751096,-0.06892119,-0.07391133,-0.04772377,-0.040538903,0.016374363,0.01830619,-0.007586825,0.038694784,-0.01709447,-0.071848795,0.08398782,-0.026626451,-0.058534004,-0.027136084,-0.01818559,0.02514497,0.047625955,-0.043846987,-0.016352352,-0.016668277,-0.016415022,-0.035434432,0.062022023,-0.02473524,0.0475402,-0.024495363,-0.024977608,0.015511377,0.055713363,-0.08505274,0.022926798,0.008744089,0.016052272,-0.071751446,0.060892966,0.018792361,-0.028337806,0.074843206,0.11166914,0.04661185,-0.073046766,0.009470566,0.047122143,0.008839555,0.043219507,-0.07493449,-0.06806101,-0.07977267,-0.03903068,-0.059933122,0.08433599,0.05858513,-0.08467545,-0.036539756,0.023429742,0.06918687,-0.042138543,-0.033558562,0.08029401,-0.07892466,0.060828913,0.031380266,0.07996805,-0.0410661,0.015995825,0.038426176,-0.060309447,0.05611745,0.005863022,-0.07538707,-0.0522465,0.04457062,-0.036685083,-0.04925568,-0.04519852,0.06283566,-0.007351642,0.083884105,0.018152181,0.014498949,-0.09327955,0.012234557,0.06882435,-0.0126241315,0.033897046,0.07625403,-0.020658124,-0.077325545,-0.048383612,-0.008241619,-0.0101265805,-0.08777039,0.09080683,0.029821495,0.06671326,0.07523067,-0.03244273,-0.03831113,-0.025146235,0.030591965,-0.012072625,0.05586471,0.06605066,0.045586456,0.014479088,-0.054777164,-0.011554825,0.0029456194,0.03026,0.0684439,0.054480575,-0.0286726,-0.073847085,0.075022735,0.04511382,0.051416792,-0.07064245,-0.014691719,0.026766716,0.010569198,-0.056853823,-0.07305558,0.0208408,-0.05167899,0.0699355,0.024428539,-0.01875785,-0.05438551,0.0782775,0.07992345,-0.0033751419,-0.04975757,-0.067495994,-0.07053273,-0.02190953,-0.019173305,0.005896057,0.07675439,0.0816713,-0.0071366453,0.012061573,-0.07665479,-0.035921093,0.022236714,0.025923373,-0.019349273,-0.078823306,-0.0232995,-0.04597849,0.0640488,-0.013968549,-0.06962684,0.0396211,-0.011506805,0.051428437,-0.0008359402,0.0651427,-0.015642814,0.048736397,0.033807535,0.009402246,0.05242462,0.08481663,0.019568456,0.052322723,0.005966134,-0.028780865,-0.030109573,0.06313816,-0.10007939,0.07304413,-0.021679211,0.076727815,0.02037392,0.026392346,0.00629777,0.05832795,0.02191074,-0.06339821,-0.07916788,0.044720743,-0.009514351,-0.019164886,-0.040972903,0.03190212,0.042401545,0.018884255,-0.07226998,-0.031233545,-0.0074680247,0.047358327,-0.018432375,0.040299445,-0.08016552,0.030154213,-0.04815217,0.033185452,-0.04615475,-0.046179987,-0.008890855,0.04542884,0.04245538,-0.004230983,0.053082455,-0.0016896921,0.040578004,0.04448065,0.039746765,-0.048927214,0.008369622,-0.002904451,-0.02492367,0.0058409055,0.06579803,-0.057800468,-0.08648238,0.070591085,-0.05567132,-0.016765846,-0.06693512,0.062392946,-0.06038178,-0.07807379,-0.049529083,0.010047075,-0.005719704,0.033794962,0.039899267,0.062201157,-0.011643016710877419
0.036958765,-0.0038872096,-0.059366494,0.057124585,-0.054100994,-0.08573244,-0.065632604,0.0022249615,-0.11476382,-0.10916305,0.011269276,0.05373598,0.0011363652,-0.08599588,0.023348197,0.04371373,0.01683366,-0.07644623,-0.043767206,-0.046599533,-0.09978745,0.004250697,-0.01677638,0.011891051,0.09037647,0.049756933,0.0078703975,-0.07069729,-0.06377014,-0.0375603,0.06965558,-0.08272693,-0.023898331,-0.046722453,-0.00019018115,-0.09601951,0.020105734,0.067906804,-0.076897345,0.06611238,0.057086673,-0.036695063,0.004155839,-0.07245559,0.04617669,-0.025594098,-0.016146377,-0.059741516,-0.041483063,-0.017346295,-0.0620484,-0.045753658,0.027871525,0.016209714,-0.05448405,0.025218723,0.035988122,0.054555163,-0.050805673,0.041352596,0.017260948,0.03159771,0.06242087,-0.003962204,-0.019972388,0.03678026,0.059843097,-0.0101417145,0.02797246,0.014368162,0.05520817,-0.07766143,0.009398866,0.041155525,-0.061151154,0.034963645,0.02506079,-0.05558206,-0.013670684,0.028106997,0.062615804,-0.005683548,0.08985537,0.06365708,0.04277991,0.07168697,0.04474354,0.072070874,-0.03382917,0.05756523,0.02379557,0.014168661,-0.019335784,0.09051994,0.01762595,0.08137843,0.007196125,-0.036873177,-0.065242335,-0.037756253,-0.014626487,0.0086327875,-0.02179455,0.084932,0.06197356,0.064899325,0.03792465,0.05283001,0.0033707027,-0.070649005,-0.0021487076,0.075386316,-0.03921831,0.020647058,-0.014585668,0.088615455,0.04963169,0.015158347,0.04145424,0.015473773,0.09250506,-0.008627893,0.053267878,0.09649051,0.09098354,0.03302187,0.08301213,-0.012015412,0.027052538,-0.072541416,-0.06516697,-0.0002651492,-0.03314325,0.020230688,-0.02514542,0.035973147,0.031139048,0.033930816,-0.07119412,0.0068960977,-0.047128964,0.006630249,0.018359838,0.062407684,0.0007554158,0.049121585,0.029511642,-0.0926778,0.004894989,0.03343506,-0.024595534,-0.014381329,-0.026948284,-0.0075928057,0.05214564,-0.04391719,-0.08866285,-0.043463424,0.03263461,-0.016063869,-0.07536564,-0.068242766,0.08033637,-0.040499464,-0.044270914,0.027742757,0.0034639463,0.068771735,-0.036351535,-0.024212878,-0.08088643,-6.0207567e-06,-0.06305192,0.058091167,0.07461524,0.041100733,0.018655976,-0.01945749,-0.010594704,-0.006634733,-0.06866008,-0.015168078,0.035705883,0.0438017,0.039665326,-0.020036628,-0.04861275,-0.0357423,0.067268685,-0.08884888,0.07202007,-0.03264732,-0.031178793,0.0014438517,0.046141565,0.04423922,0.03019554,-0.08848054,-0.07888851,0.0475463,0.050405003,0.07071334,-0.036775563,-0.031343788,-0.039492313,0.0351632,0.0064727957,0.034622017,-0.033169005,0.023565063,-0.016053319,0.05234722,0.06999493,0.037059207,-0.015973322,-0.05057768,0.05849792,0.056788005,-0.042202618,0.032550007,-0.0050021554,-0.09766768,-0.09942436,0.029567894,0.05574916,-0.031404182,-0.009716291,-0.04728893,-0.0404158,-0.0088363215,-0.050841052,0.039379492,0.04480938,0.0076897945,-0.077741936,-0.040835537,0.001412574,-0.08130796,-0.10346626,0.034973722,-0.019390034,-0.09514711,0.009195269,-0.02071155,0.039818823,-0.044009354,-0.057072468,-0.09943495,0.010276561,-0.0599169,-0.03510049,0.0077542136,-0.04369321,-0.10308273,-0.075755104,-0.06221671,-0.022894857,0.038674597,-0.014267715,-0.04026652,0.07268961,0.0038756088,-0.08041607,-0.088873945,-0.070836954,-0.013318634,0.026411906,-0.07195779,0.049815666,0.0049612033,-0.054014325,0.034113098,-0.07531581,0.004560046,0.03568795,-0.06378341,0.056902457,-0.02795883,-0.078139275,0.020285448,-0.07255534,0.05564472,0.011845807,-0.094379164,0.06864119,0.019637385,-0.020938184,0.07491394,-0.044336677,0.029928952,0.025758112,-0.03546267,-0.095678,-0.033807643,-0.05038743,0.020145727,-0.02026284,-0.10763141,-0.042617865,0.011928319,0.0739729,-0.017351883,-0.07632143,0.007588179,0.028266456,0.03788267,0.089097835,0.021020949,-0.007288789,0.010293144,0.06517058,0.025393866,0.046657197,0.03411316,0.075210154,-0.044082306,-0.055523146,-0.06630728,0.03953273,-0.0388995,-0.043992598,0.00528107,0.065898426,-0.034356996,-0.014591768,0.07211332,-0.027071344,-0.00045614463,-0.08906087,0.05486624,0.021611264,0.07627159,-0.06591655,0.047558945,0.030789826,-0.09314684,0.08000425,-0.038817875,-0.013403409,0.06232483,0.067085996,-0.058778785,-0.026157882,0.07938093,0.07693446,0.0836821,0.08094358,-0.04989573,-0.00065128354,0.0074566966,0.063762635,0.061026316,-0.0018143561,0.027177699,-0.058489934,-0.050254207,0.077074714,0.100085296,0.04937524,-0.041234028,0.088514656,-0.056439485,-0.026132662,-0.007994538,0.03094161,0.061256062,-0.050923966,-0.03195371,-0.056984305,-0.054690387,0.07159465,-0.02892727,0.0452838,0.05017131,-0.00036624022,-0.034176584,-0.0031191544,0.027521363,0.059947506,-0.02518245,0.029333794,0.0686496,0.073941946,-0.037208445,0.019669997,-0.035163052,-0.051592633,0.05385419,-0.05622979,-0.0061279186,0.0784278,0.062004734,-0.03420097,-0.008373491,-0.0567212,0.0819511,0.05257937,-0.010162455,-0.0064514345,-0.05673782,-0.056600995,0.06696144,-0.04625945,-0.039467704,0.030239766,0.059526198,0.04390971,0.0069691753,-0.06650134,0.06631107,0.03430697,-0.08548109,-0.080428556,-0.06746056,0.060660943,0.022563005,0.018639296,-0.014460011,0.030915312,0.0337627,0.033726174,-0.0008970966,0.05282175,0.050594192,-0.026405752,-0.08854703,-0.05527229,0.060093082,0.011338754,0.035568394,-0.022507075,-0.040572103,-0.0044371043,-0.06349671,0.07062154,-0.011705431,0.057430122,-0.0762831,0.0033521166,-0.08140598,0.045348305,0.010422018,-0.03769975,-0.04463896,-0.018962458,-0.0241961,0.05424159,0.053379208,0.0205749,-0.052244715,0.09146709,-0.017058462,-0.06748375,0.019623235,-0.0032554723,-0.059130426,0.042515114,-0.038147412,-0.01892804,-0.05782351,0.07710577,-0.08183293,-0.002487764,0.013795442,0.009472947,0.06294811,-0.09045004,-0.0349378,-0.03125987,-0.052336015,0.011058495,-0.08431764,-0.07278697,-0.02511414,-0.011422095,0.0113938125,-0.023250235,-0.049442016,0.066767216,0.08198738,0.021507932,0.056556877,0.06382539,0.0038698919,-0.07970385,0.059126567,-0.024944333,-0.055404883,-0.07086841,0.003330195,-0.03569522,-0.077587046,0.010559822,0.068541475,0.07076917,0.05068374,-0.07162614,0.06803813,0.023224909,-0.08493874,-0.0099348985,-0.08660653,-0.042052064,-0.051369198,0.021189937,-0.06784378,-0.029644007,0.033043507,-0.07351304,0.08487104,-0.045502786,-0.006789989,0.0012278018984943628
0.10166371,-0.06728072,-0.10603243,-0.028181067,0.02016921,-0.059447527,0.046757556,0.06690999,-0.068476714,-0.0012214659,-0.010448373,-0.0012509899,-0.052736122,0.04357495,0.035150167,-0.04754072,0.0654101,0.05296315,-0.01805409,0.08587588,0.057712946,0.04676226,0.041252337,-0.062572695,-0.09861333,-0.06507196,0.05454755,-0.060177706,0.04211803,0.025216205,0.004717894,-0.012113374,-0.06771011,0.009956484,0.05862648,0.08132545,-0.054355547,0.0007789355,-0.05931704,-0.0753467,-0.024278784,0.0616519,0.073075935,-0.03840011,0.037319094,0.006998999,0.028364897,-0.0035606886,0.07807414,-0.04195908,0.06811962,-0.08694902,-0.043347917,0.027564233,-0.06450486,0.09452639,-0.037591223,-0.02285326,-0.02922649,0.026020763,-0.0696466,-0.011404827,-0.038647097,-0.049516935,-0.0073585487,0.055667706,-0.07647489,-0.038657997,0.07301388,-0.027142202,-0.024509065,-0.00124187,0.06096156,-0.05715899,0.06047776,-0.019162642,0.05234514,-0.07930097,0.04383075,-0.083665945,0.027894082,-0.0627078,0.036920678,0.08542636,0.051076304,0.0069182054,-0.048784126,0.014403943,-0.019216085,0.06686569,0.07256868,0.015127016,-0.03383127,0.04586541,0.002915022,-0.023014076,-0.043267,-0.07948841,0.011343542,0.015792793,0.020325107,-0.07604075,0.079469904,-0.078634046,-0.064596996,0.031183023,0.05829795,0.076507494,0.0709134,0.04696251,-0.031369377,-0.016021896,0.056272898,0.04730321,-0.015760202,-0.068926364,-0.062004756,-0.044929087,0.051023304,0.06265308,-0.04692992,0.024860218,-0.0015086122,0.07948777,-0.066167064,0.050165832,0.09087465,-0.027352057,0.08604251,0.0077155815,0.045242704,-0.06757304,-0.035620343,-0.025361842,-0.02835063,-0.010973842,-0.060028326,0.07332255,-0.005723227,-0.053282324,-0.027749818,-0.0017316119,0.07879091,-0.057370666,0.07703395,-0.0043160436,0.04763575,0.047584463,-0.064547315,0.013031854,-0.025002638,0.068376936,0.006689646,0.073745266,0.082782,0.08840917,0.029554203,0.016269233,-0.040515155,-0.06979695,0.06118612,0.08279501,0.064162984,-0.09464011,-0.020248856,-0.01358789,0.07788918,0.052280888,-0.0035432896,0.06314376,-0.059433322,0.012475844,0.018422356,0.03141337,-0.019391565,9.493259e-05,-0.0027926033,-0.06650337,0.03146377,0.026643798,-0.024998683,0.02466712,0.04175048,0.061015647,0.026705995,-0.023236822,0.006644688,-0.04877225,-0.014829088,-0.07809239,0.06930832,-0.042709436,-0.042649955,-0.08579514,-0.061922017,-0.055696636,0.04172905,0.029689841,0.02181365,0.009586169,-0.013656271,-0.06857567,-0.071302235,0.009930277,-0.06811895,0.04747272,0.05688266,0.080454476,0.037948463,-0.0261561,0.06549798,-0.07813665,0.07043778,0.04499845,-0.048054688,0.07722605,-0.07856681,0.055022724,-0.07630213,0.023211686,0.0072230604,-0.066886425,-0.0759697,-0.031008113,-0.037757665,0.009593099,-0.016303936,0.018075401,0.015224093,-0.026475053,-0.038776617,-0.015462102,-0.028526427,0.0019338725,0.028826501,-0.046893027,-0.035272267,-0.0043665753,-0.040374253,-0.04079298,0.0056293188,0.06912512,0.051792532,0.029485583,-0.045841463,-0.05231511,0.014257533,0.04139842,0.027859237,0.05795505,-0.060957246,0.03568517,0.006193494,0.037993953,0.0803494,0.07401944,0.02959997,0.003962464,0.060392197,0.061061803,0.053190123,-0.031162847,0.046124388,-0.021569867,-0.0010545999,0.0044563953,-0.0051222155,0.05090799,-0.018307026,0.05571872,0.03177606,0.1089141,-0.053755976,-0.029009497,0.05343349,0.07767482,0.09348985,0.10025274,0.04961404,-0.017406393,0.027275028,0.041716877,-0.038938474,0.08623247,0.07156331,-0.013924533,0.008940155,-0.015347657,0.096269906,-0.030829778,0.053204533,0.0560113,-0.046257265,-0.014460609,0.0129327,0.05513887,0.04629267,-0.03319433,-0.047749918,0.0598481,0.07726993,0.10083931,0.0519857,0.044100005,0.045764815,0.013222766,-0.047707755,0.06409552,0.048061118,0.02354082,0.03191864,0.03617593,0.082723185,-0.06463136,-0.03393123,0.018953405,-0.046763152,0.031201858,0.09519784,0.07218992,0.014316118,0.054925453,-0.08486083,0.009877665,0.08519706,0.07068481,-0.080219984,0.05412597,-0.061937585,0.031233856,0.018828595,0.022331625,-0.05573506,-0.055909075,0.032204676,-0.034677215,0.008361099,0.02728777,0.058842566,-0.047413617,-0.056415755,0.049075432,-0.04344337,0.06951329,-0.056995396,-0.038196508,0.09133746,-0.053489212,0.08155566,0.036680542,0.042880677,-0.057537906,0.071347095,-0.0516347,0.043422394,-0.018438905,0.05256723,0.08235341,0.06626277,0.049564887,-0.05276019,0.017814837,0.03308019,0.010880999,0.09551327,0.035578378,-0.0765409,0.08575626,-0.07194716,0.08829668,0.065956704,0.09468669,-0.06341154,-0.05524207,0.012283408,-0.055231694,0.004698779,0.013208879,0.08744067,-0.033698693,0.023455137,0.05790384,-0.058431882,0.008687897,0.052005034,0.030644502,0.050101113,0.07749374,0.035198282,0.03094674,0.09181278,0.0734903,-0.008230994,0.02672854,-0.02607728,-0.021242362,0.086526535,0.09245514,-0.022459622,-0.012157917,-0.0051990533,-0.045355354,0.018477114,0.007024774,-0.014439944,0.061274186,-0.022008093,0.0026422637,-0.03335756,-0.022358928,0.09462161,0.06716079,-6.5506545e-05,-0.004036049,-0.008870217,0.066300265,0.026614485,0.05661918,-0.044965185,-0.06719427,-0.082130246,0.0147647,-0.07952648,-0.08884499,0.0057068495,0.017628152,-0.058977887,0.071981296,-0.059833765,0.026784616,-0.039466273,0.06868386,-0.05674744,-0.044126306,-0.07907457,-0.023661667,-0.038228847,-0.07605122,0.06676682,0.017805114,0.09431661,0.0487711,0.05167196,-0.007591551,-0.07497786,0.0016429152,0.022750648,0.041011848,0.016357956,0.016303377,-0.046836518,0.043529745,-0.053241488,-0.07821987,0.014136097,0.06741356,0.08296369,-0.06493788,0.044457246,-0.03323852,-0.029474718,0.020256618,-0.042777184,-0.06573619,0.026998026,0.005843731,0.015552597,-0.05425465,-0.10586392,-0.07378661,-0.0526381,-0.008013511,-0.0063201925,0.044664398,-0.039754912,-0.01973576,-0.036541745,-0.0053984635,-0.04129094,-0.09969393,0.02032417,-0.084579684,-0.07542279,0.040604748,-0.0021715865,-0.030913189,0.049104765,-0.041446265,0.002162336,0.004851806,-0.045838345,-0.048659798,0.0013993108,0.03891848,-0.044791386,-0.03964194,-0.035373516,-0.048861902,0.0068584206,-0.052072894,0.058174677,-0.06950694,-0.034044225,0.074197285,0.02512915,0.06881456,-0.040270224,-0.055116016,0.005568853,0.038565554,-0.043060917,0.033943236,0.005546515341848135
-0.051319446,0.02530541,0.044679157,0.0025196616,0.049665835,-0.0029501233,-0.051555898,0.111497216,-0.013438858,0.0027795464,0.0127434265,0.093833655,-0.034301136,0.09963867,0.05717259,0.039678,-0.009774797,-0.0049953954,0.05763631,-0.059853327,0.07170351,-0.060377415,0.039147135,-0.06201045,0.091812804,0.062468234,0.04086883,-0.05935113,0.07650025,-0.052902896,-0.049356956,0.07273646,0.018834408,0.00070597435,0.10112445,0.06937664,-0.034508698,-0.021236585,0.042137507,0.09799638,-0.034445446,0.008930121,-0.091236174,0.003945049,-0.01665107,-0.04540504,0.06438886,-0.021562643,0.03531173,-0.03233523,0.019425994,0.08005241,0.0027225893,0.043456648,0.07528959,0.09482944,0.032205466,-0.0707411,0.06892884,0.047256127,0.08657468,-0.020301197,-0.047632497,-0.03176444,-0.08131739,-0.054186765,-0.0125926295,-0.06833218,-0.053177457,-0.07092633,-0.005815633,0.0070548826,-0.050053783,0.086095564,0.061202433,-0.02046505,-0.081157945,0.057884745,0.012973368,0.030522978,0.0296867,-0.08796718,-0.012181846,-0.019178122,0.032016702,-0.06283277,0.014484572,0.058087982,0.028406614,0.023936845,-0.049556177,-0.03810135,-0.06232715,0.031938322,-0.028788611,-0.061179426,0.00011430081,0.08071406,-0.046855804,-0.06392668,0.008760134,0.0757786,0.057967067,-0.049432088,0.07580095,0.02617531,-0.049698044,-0.086992905,-0.098187365,-0.053702507,-0.036055505,-0.034074113,0.034300234,0.025267681,0.0037084995,-0.012534347,-0.027895391,0.010283052,-0.0042439355,-0.024197023,0.027801517,-0.056665674,0.021068258,0.07513775,-0.02652916,-0.005893483,0.06092577,-0.01822826,0.047589034,0.015361019,-0.039145105,-0.06417611,0.0226888,0.056310415,-0.05580127,0.06535786,0.042624854,-0.07636947,-0.031653695,-0.015246011,-0.09420405,-0.023335481,0.062435813,-0.016448867,0.081574045,-0.08624297,-0.011580092,-0.0319908,0.033151932,0.028098458,-0.06356002,0.041010533,0.049389344,0.013310819,-0.06560785,0.01954929,-0.055849068,-0.040668186,0.07597433,0.028993761,0.05849183,0.06466645,-0.06449846,0.03481665,0.004179843,-0.08855103,0.06441788,-0.006086472,0.011272058,0.0013947518,-0.025346432,-0.084856495,-0.02428851,-0.010523873,-0.05709032,0.01226995,-0.0674102,-0.026986497,-0.02331233,0.0008759571,-0.003991796,0.0749569,-0.037123516,-0.07612955,0.051130444,0.07407536,0.023221897,0.044577,-0.08547004,-0.047358867,0.031882893,0.0058280854,0.035471708,0.007720684,-0.009628,-0.030108802,0.06727688,0.08202817,-0.08755295,-0.025385592,-0.0055723735,-0.07714396,-0.01605082,0.0020874846,-0.07439697,0.029515076,0.07247584,0.043919176,-0.023479093,-0.06235868,0.0026605066,0.050789338,-0.045489233,-0.043294325,0.040838055,-0.03677043,-0.07653726,-0.029140918,0.041216522,-0.08039144,-5.9765927e-05,0.015463404,-0.058802564,0.04618085,0.081337765,0.08154793,-0.057130467,-0.013063691,-0.040961146,0.018240303,0.096548416,0.08499257,0.07172708,0.07840223,0.069242574,-0.008053951,-0.009000119,0.04396686,0.057429936,-0.00021840766,-0.008192401,-0.017364107,-0.08145865,-0.03311125,-0.047660485,0.057240542,0.0049983086,-0.041593257,0.06554117,0.06832753,-0.07221637,-0.0059714294,0.04877222,-0.024120655,-0.07650354,0.036762603,-0.108140975,-0.07567951,-0.09158097,0.0010579438,-0.00105287,0.08045227,-0.05514516,0.021323448,0.018482737,0.010440643,0.025157152,-0.07080223,-0.03212076,-0.07225056,0.08860181,-0.07491889,-0.10243592,0.035268612,-0.07563623,-0.073599525,-0.095349394,0.03462692,0.059800155,0.044929042,0.036465127,-0.09152521,0.03504261,-0.015834138,-0.03286812,-0.06810628,-0.08112419,0.012994379,0.012334206,-0.037396703,-0.024708044,-0.059288222,-0.046840373,0.02707942,0.0380669,-0.03277889,-0.11926622,-0.032252584,0.031236589,-0.05537121,-0.057794448,0.050195076,-0.007953883,-0.041602742,-0.018241374,-0.020867176,0.027811887,-0.031224547,-0.08579354,0.018840132,0.018040936,0.10290058,-0.07982138,-0.05287426,0.025748802,0.052387144,0.0704873,0.007888082,-0.07417972,-0.055662744,-0.0346568,-0.011039528,-0.08564315,0.00979808,-0.020725291,0.03919727,-0.06001862,-0.053159133,0.01353767,0.043555442,0.047624856,-0.04856863,0.012475779,-0.051462337,-0.03303882,-0.050877657,0.013618247,0.028723275,-0.047477394,0.06121201,-0.0762657,-0.030423952,0.042319372,0.037698295,-0.07054659,-0.013837313,0.044714727,-0.050613772,0.0779253,0.06458839,-0.019396035,0.084760696,0.038176626,-0.018792171,-0.07784767,-0.031983256,0.008355601,-0.033089288,-0.02312216,0.035252467,-0.009454711,0.05675725,-0.0013016793,-0.010269822,0.0680172,-0.08942552,0.013663295,0.07810995,0.019161625,-0.043347236,-0.019512067,-0.07312268,0.04678735,0.088920295,0.025357006,0.07516734,0.07811937,0.080270514,-0.06178455,0.09104049,0.04247288,0.025690896,-0.021909922,-0.040334046,0.012010694,-0.03471219,-0.0753443,0.073921844,-0.07357259,-0.015176436,-0.008815862,0.016910713,0.07093872,0.041041046,-0.06923038,-0.042192128,0.058640786,-0.06882242,-0.030634424,-0.06710141,-0.04496649,-0.06701481,-0.080288716,-0.0025807796,0.040549994,0.075535916,0.069354504,-0.074073866,-0.005034621,0.08202313,-0.027262371,0.053307593,0.07798709,0.039100572,0.06274176,-0.050675716,-0.0012041813,0.0122991465,-0.023875948,0.014226026,-0.07249368,-0.0339097,-0.020103207,-0.069044895,-0.07567146,0.017034976,-0.020336466,-0.019986685,-0.07103883,0.0593071,-0.060303997,-0.02246005,0.0628975,0.0200036,0.061429877,-0.05989952,0.028705155,0.039087944,-0.07104607,-0.097139984,0.029714722,-0.005425908,0.026670307,0.006189865,0.022841135,-0.0024370316,-0.08574411,-0.010537844,-0.028085578,0.07200798,0.042540774,-0.069954336,-0.092066385,0.07747543,0.07845651,0.032803692,0.03860662,-0.059188314,-0.027166227,0.06945469,-0.06353894,0.077161714,-0.04675255,-0.020309955,0.056340214,-0.07535779,-0.014762313,0.025085716,-0.033093043,0.04930607,-0.008241371,-0.010288732,-0.06370039,-0.03184493,0.016434513,0.0475061,-0.07886896,-0.0535346,0.00023969146,-0.08521148,-0.06446523,0.037407313,0.00084760715,-0.040689167,0.03583815,-0.028327469,0.034957346,0.06920078,0.058125656,-0.08099615,0.06273211,0.008761381,0.030755384,0.08197749,-0.0059032426,0.061639808,0.060516354,-0.07352912,0.04167056,-0.03841215,0.067944884,0.021811293,0.05127062,-0.0450396,0.06445239,-0.04155674,0.010212449,-0.06537694,-0.042369734,-0.034468185,-0.03804492,-0.021542864,-0.028806166723370552
0.003505187,0.10667953,-0.0020203276,0.0033299916,0.09079431,0.023716273,0.06752081,-0.024410143,0.032096103,-0.002035078,-0.084359534,0.057626817,-0.05359255,0.053919613,-0.076348305,0.025179893,-0.05168971,0.0861604,-0.02666479,-0.013900253,-0.012444894,-0.007302297,-0.05886375,-0.029696453,0.034574565,0.09560904,0.021262566,0.06419371,-0.013066341,-0.005417121,-0.013220508,-0.04929512,-0.0590801,0.023411367,0.020623086,0.06658498,0.0867678,0.073510244,0.05983782,0.042554058,0.072339475,0.07720216,0.09456619,-0.02742815,0.096435286,-0.05483446,0.05722591,-0.007968059,0.008124191,0.037519146,-0.08093259,0.020742714,0.00027746512,0.011427235,0.033625763,-0.032278985,0.047585245,-0.02178268,0.051837757,0.02892916,-0.07358649,0.05613349,-0.0021711746,-0.019668976,0.059342485,-0.03464947,-0.028449327,-0.028956885,-0.068022415,-0.032825444,0.093228824,0.03830406,-0.02913814,0.07912727,0.036429383,0.05625968,-0.05960368,-0.06843107,0.023405354,0.020905828,0.078309834,-0.082580216,-0.028357165,-0.034069918,-0.065456025,-0.017376406,-0.041209273,0.037315797,0.051015574,-0.008594056,-0.008709726,0.080019645,0.08998591,-0.010347343,0.06341606,0.015806718,0.018600335,0.020004002,0.051928654,0.07542919,-0.06917715,0.031910647,0.04404133,0.05906736,-0.03757379,-0.044056855,0.06873678,-0.08862251,0.058460455,0.013387981,0.017304705,-0.06521641,-0.089717835,-0.014567841,-0.017090054,0.04299831,-0.01202297,-0.043207247,-0.04297365,-0.0044442443,-0.052311257,0.0062005995,-0.031067465,-0.06954334,0.08252872,-0.07105507,0.034140628,0.007597358,0.070504725,0.0009927042,-0.05130508,-0.039103158,-0.013894706,0.03771789,-0.06324071,0.035530332,-0.05857086,0.07976123,0.0019788402,0.07291664,-0.00020900632,-0.03976615,0.028381884,0.0628146,0.007440686,-0.01572139,-0.0454456,0.057757936,0.082344376,0.06585636,0.031697523,-0.036487497,-0.0053714514,0.030982496,0.052320216,-0.04406828,0.020246148,0.04704077,-0.031832546,0.048824485,-0.032248292,0.04105881,0.09435617,0.06609466,0.040874794,0.09894373,0.03279552,-0.03629699,0.1145672,-0.0135528315,0.0696771,0.023609867,0.0028064272,0.011202011,-0.042497225,0.07929397,0.072967954,0.0020577046,0.07907331,-0.05640828,0.08822824,0.025185117,0.076227464,0.08891102,0.05930002,-0.04619518,-0.07047817,0.025228493,-0.02117919,0.012822288,-0.034948673,-0.053160705,-0.0064752093,-0.05203743,0.07689462,0.045111332,-0.05432918,0.009131194,-0.009873719,0.062388703,0.10111595,0.049017735,-0.0071561513,-0.05885608,-0.05230725,-0.060292095,0.021693312,-0.025547365,-0.050929844,-0.07390141,0.017837156,0.0663394,0.05302548,-0.054058217,0.06691058,-0.03453815,-0.039134685,-0.053683937,0.023183899,0.050727025,-0.0065803514,0.070195004,0.09207461,0.07943421,-0.017201833,0.027066762,0.089397594,-0.055769492,0.070415854,0.09181578,0.048846416,0.032452058,0.071073,0.09487718,-0.023992969,0.068410404,0.05301483,0.01702449,0.00056055404,-0.004054757,-0.05990251,0.08385135,0.0039413064,-0.041019417,-0.03774876,0.02645644,-0.034933425,0.07209786,0.071763106,-0.04142865,0.016082903,0.07503477,-0.07134197,0.02237633,0.007922073,0.06218687,0.0062061655,0.05662566,0.08423755,-0.0331649,0.12019449,-0.019900335,0.012803272,0.07748942,0.06788835,-0.000189957,-0.021362012,-0.06629022,0.032563448,-0.003971579,-0.05280515,-0.06525957,0.06488062,-0.03621534,0.09862703,-0.04066755,-0.03114803,-0.0335845,0.040867798,0.060601532,-0.030263279,0.08430495,0.0036521598,0.09021806,0.08668815,0.005615503,0.031938665,-0.013571999,0.10926013,0.02575956,0.07071031,0.057302877,0.098079294,0.0049627647,0.07561376,0.033398274,0.027307056,-0.026981676,0.09976309,0.05587763,-0.069574505,0.032697093,-0.06973728,0.014768513,0.017085632,-0.046641726,-0.030874409,0.10428117,0.013120132,-0.046904188,-0.05083849,-0.021061486,0.011233084,0.0065869954,-0.045589026,-0.04056226,-0.04163594,-0.019105166,-0.0058347876,-0.0474773,0.0019358433,0.081370585,-0.028942244,0.042707764,-0.056604475,-0.057534948,-0.020532573,0.08833499,-0.07568555,0.046719436,0.018778717,0.0358132,-0.036803603,-0.005147458,0.08317055,0.0734048,0.061873704,-0.066381216,0.034164462,0.04530911,0.027048837,0.08226894,0.008484979,0.06252545,-0.011179226,0.012975514,0.002899766,-0.05859102,0.08390171,0.019429032,0.021675186,0.014782655,0.1008856,0.10748054,-0.009557438,0.02774088,0.078108855,0.09668019,0.0641844,-0.008685649,0.08230143,0.0049492484,-0.056158457,0.020778013,0.044129632,-0.023908027,-0.06044247,-0.05055391,-0.04834334,0.03354859,0.05453031,0.050135467,0.0052061565,-0.030733993,-0.07665021,0.00033474417,0.06620468,-0.014663555,-0.06320195,-0.02405214,-0.024901487,0.05488303,-0.0637739,-0.0029528642,0.012095915,0.014373891,0.04712463,0.086264394,0.040466905,-0.022016361,-0.030728236,-0.06075619,-0.042478114,-0.046765413,0.08674712,0.0046989103,0.104615115,0.049719222,0.058068343,-0.057188906,0.02805244,0.035987206,-0.056676503,0.0874422,-0.01490443,-0.028108448,-0.028152881,0.09013666,-0.006562803,0.0076373713,0.08825679,0.0067830277,0.089615434,-0.0061674695,0.0076073483,0.015155378,0.10426868,-0.029196303,0.042554017,0.09832407,-0.020902868,0.061704278,0.06584781,0.07548911,-0.0026056035,0.059525553,-0.00215678,0.087131485,-0.033144575,-0.0050214,0.0903144,-0.0051072314,-0.046724472,0.008243329,-0.033513527,0.012076233,0.0327698,0.086727194,0.09035432,0.04510014,-6.378587e-05,0.052967906,0.09317034,-0.05636942,0.057074975,0.009906169,-0.04572156,0.06286448,0.06125942,0.10428275,-0.047983054,0.011418084,0.074799016,0.021542063,0.08459253,-0.072300576,-0.047334965,-0.040293366,0.08911201,-0.020758819,-0.009420818,0.03791647,0.0866909,0.07032595,-0.014365577,-0.025134183,0.09460333,-0.016937371,-0.0065965443,0.07706809,0.08983397,-0.07606094,0.015341278,0.08677606,0.093015976,0.06015545,0.06304477,0.03129118,0.046076193,0.0936667,0.055549953,0.0771449,-0.04415037,-0.008054251,0.08216694,-0.06132922,-0.077667214,-0.083462045,0.085547455,0.02060763,0.06156917,0.06376537,0.08970856,-0.06908035,0.06571641,-0.055707306,0.090623125,0.058906216,-0.014796114,0.10122681,-0.068076886,-0.061052382,0.04266285,-0.019544024,-0.014117045,0.078429565,0.07754539,0.024726352,-0.050450575,0.08419396,0.030498406,-0.0531914,0.04365130513906479
0.09023051,0.020179147,0.068656296,0.04840911,0.07518174,0.124431476,-0.07061136,-0.03408753,0.021802202,-0.0381742,0.024747089,0.04135719,0.038261987,-0.054800805,0.060998756,-0.009157369,0.045762505,-0.020372638,-0.009521903,-0.07734835,-0.01418488,-0.06729196,0.049549367,-0.0865051,-0.054334674,0.061056398,0.092198275,0.026420359,-0.08130794,0.040334277,0.017082991,-0.03994242,-0.085867606,-0.058292504,-0.08764906,0.0842294,-0.008100638,-0.057754636,0.035930973,-0.035986226,0.059901506,-0.087779224,0.0076619913,0.0013368762,0.033465706,-0.05229346,0.028107267,0.021958917,0.055901825,0.081554346,-0.030073876,-0.06441829,0.0031526946,-0.011890436,0.10640191,-0.029370226,0.10769917,0.09191811,-0.041440893,0.071549624,-0.011503106,-0.06886757,0.081346564,0.018672831,0.032672532,-0.05160681,0.07850075,0.09972146,0.010062804,-0.07144296,0.051158886,-0.07165213,-0.0037880703,-0.04005103,-0.030828632,-0.01528041,0.08386837,0.02666002,0.10790986,0.084025264,0.06993933,-0.036914214,-0.02831861,0.08253685,0.083676614,0.0007466825,-0.003147584,0.019368468,0.04486029,0.07175054,0.03236857,-0.024229515,0.03995498,0.015198207,-0.05541935,0.06550115,-0.06960534,0.0013135034,0.028474111,0.07337869,-0.01693183,0.09199666,-0.014767573,0.030679697,0.054461554,0.021047086,-0.01379895,-0.04192265,0.011207428,0.0052208668,0.073244885,-0.04708701,-0.047896367,0.09309914,0.034684267,-0.07204398,0.032769177,-0.02893843,-0.030341182,0.06613137,0.049569618,0.06656632,-0.008336794,0.074972585,0.0820891,0.056457117,-0.06752124,0.0013159197,-0.017242735,0.026138104,0.07872149,0.0323407,-0.021518454,-0.065146826,0.026901849,-0.028540047,0.07681152,0.040678065,-0.0060239555,-0.04011465,0.0039262115,-0.0035029256,0.058451552,-0.015711673,0.091139935,0.07999692,-0.018312523,-0.00784136,0.089413956,-0.06954474,0.0020153602,0.030423028,-0.008820589,-0.069886126,0.026189102,-0.053932726,-0.0063426783,-0.07587547,0.043391626,0.023719618,-0.06705496,0.003174711,-0.068916015,-0.05422223,-0.04314468,0.045972012,0.02354304,-0.07409531,0.069608994,0.044781856,0.057107896,-0.0082294885,-0.02014232,-0.07507867,-0.026630117,0.03285954,0.03769553,0.04964629,-0.02602659,0.0109660225,-0.0176018,0.032090407,-0.0669522,0.03861202,0.016597759,0.08573794,0.07669838,-0.046379864,0.0012047869,0.038589366,0.07971047,-0.008746173,-0.08582279,-0.01045591,0.0099713085,0.05023032,-0.011583172,-0.053531326,-0.013412065,-0.009857152,0.06937468,-0.0746066,0.05830787,1.90269e-05,-0.043433018,0.0054242257,-0.052604873,0.07766458,0.02540818,-0.057264153,-0.029113408,0.06315277,0.0707122,0.05189148,0.03685813,-0.049844638,-0.06537763,0.023298169,0.048484247,0.06203978,-0.020790473,0.07720932,0.04792665,0.05662302,0.006953702,-0.002966937,0.030003216,-0.025806623,-0.09384261,0.0067806477,-0.06326049,0.012121458,-0.027744621,-0.009583398,0.028477589,0.071067214,0.079308435,-0.03734129,-0.04555462,0.060764205,-0.055849496,-0.025189547,-0.04998793,-0.001915722,0.021929553,-0.08104267,0.07513994,-0.09208795,-0.026917461,-0.029884607,0.051101606,0.07265084,-0.08667588,-0.044360828,0.008049493,-0.05512616,0.023972593,0.06967204,0.07954232,0.08327627,0.05189457,0.106195435,0.021925569,0.05456895,-0.06441941,0.044903617,-0.013844562,-0.08991291,-0.053680863,-0.046570744,0.00078151573,-0.0024066614,0.035273056,-0.0766973,-0.0059152655,-0.03446008,-0.06446214,-0.09643656,-0.015526805,-0.045239646,0.04296089,-0.04966287,0.0020706253,0.0118077025,-0.08455717,-0.058403738,0.035555325,-0.097223364,-0.074354574,-0.044280425,-0.10578719,0.010042391,-0.084482744,0.010412302,0.056969132,-0.08034301,-0.017567089,0.03509984,0.043313384,-0.050965838,0.01905376,-0.059103254,-0.08737991,-0.08052762,0.015276472,0.00510416,0.027680341,-0.100968346,-0.064155556,0.019158635,0.04905395,0.012535216,0.072824195,-0.05647884,0.043763634,-0.04949669,-0.03390969,0.037882145,0.07278296,0.06868821,0.050762773,0.06671576,-0.097117305,0.012243526,-0.00026136302,-0.001982191,0.04942025,0.054849856,-0.04498808,-0.08427315,0.061538957,-0.069808096,-0.06751288,-0.019287085,0.025854921,-0.012992914,-0.019488666,-0.070545815,0.046508748,-0.051878408,-0.07570203,-0.057603355,-0.082771026,-0.00863061,0.059143305,-0.018521082,-0.06698614,-0.05137846,-0.089745805,0.031339727,-0.039926507,0.06949877,-0.011342549,-0.0895616,0.019751325,-0.05932842,-0.055109728,0.060627352,0.038781404,-0.067535125,0.065369494,-0.0784541,-0.06200948,-0.012958929,0.03727301,-0.02674427,-0.060879536,0.061906934,0.07783423,0.030061146,0.051346496,0.017247645,0.054169502,0.01890513,0.011852487,-0.0640785,0.050598435,-0.06874328,-0.081190236,0.052300885,-0.02422525,0.017790679,-0.038818337,-0.016557293,0.0074300882,-0.07550987,-0.087169096,-0.024070717,0.07659198,-0.052718963,-0.007792412,0.006381113,0.0192368,-0.08133996,0.063188866,-0.076936826,0.08006039,0.02530615,-0.026481165,0.060902443,0.007973243,-0.05761926,0.08214217,-0.0813937,0.091513515,-0.018391645,0.04836505,0.055091534,0.043809157,0.061217822,0.046439126,-0.08477585,0.003975385,-0.019492494,0.038439956,-0.04204875,0.061239354,-0.046556734,0.043818574,-0.032252,-0.06367742,-0.016566195,0.08439795,-0.012097411,0.070348315,0.069102444,-0.0066631343,-0.020773701,0.06486779,-0.07876865,-0.021028375,-0.046965107,0.0879182,0.013112415,0.034735598,-0.023268538,0.03841277,-0.033808462,0.0344249,-0.052421488,-0.01430246,0.07489481,-0.058153268,-0.055847533,0.039149653,-0.036619257,-0.046216704,-0.003352825,0.048169687,0.0064124404,-0.02866974,-0.05027241,-0.044184335,0.030979343,-0.005200112,-0.0101860985,0.030167384,0.03754341,-0.030220341,0.032952186,-0.054530688,0.03454568,0.06886971,-0.015699418,-0.05208563,-0.0070551117,0.041401077,0.011509678,0.007608403,-0.03639658,0.06951028,-0.048291847,0.0006481281,-0.002500222,0.07022353,-0.06866595,0.008639105,0.015876923,-0.040648762,-0.022062719,0.0015229296,0.050795574,-0.02156112,0.039115805,0.07113661,0.012857816,-0.03258376,0.0061645443,0.075146616,-0.0048633902,0.02038175,-0.07648261,-0.079031564,-0.027346116,0.08154703,0.062027283,0.06540795,-0.07212122,0.05054005,-0.014051249,-0.04964116,0.080511875,0.034905244,-0.032318525,0.06532917,-0.04310202,-0.04212153,-0.078981444,0.045920707,-0.020853689,-0.06128431,-0.075880975,0.016056464985013008
-0.012504276,-0.07138414,0.02473008,-0.016330173,0.04322507,-0.10674321,-0.07848252,0.027305564,-0.0031741008,-0.099337004,0.0003958039,0.025918618,0.0772427,-0.013109564,-0.041960426,-0.021150367,-0.03821948,0.08771013,-0.07491308,0.013343256,0.009834249,-0.06262507,0.03037762,-0.0408822,0.025650168,-0.020025043,0.018422896,-0.06943128,0.07395316,-0.00934524,-0.042206068,-0.036905706,-0.058543358,-0.007551072,0.07291624,-0.06049155,0.01853824,-0.00034840187,-0.025838302,0.074863344,0.006209324,0.06358191,0.034400426,-0.052865274,-0.08090998,0.030097635,0.001740272,-0.006406165,0.070118956,-0.08142752,-0.050163403,-0.06168283,0.07885812,-0.014768149,0.049134318,-0.0016628713,-0.06912375,-0.07184473,-0.0073408396,0.03442408,0.051783342,-0.010652529,0.0011154813,-0.0547815,-0.0046649436,-0.08475728,-0.019439885,-0.084372625,-0.0860476,-0.05532064,0.0277441,-0.00973714,0.013530909,-0.03171374,0.06211018,0.033725515,-0.078143574,0.009765885,-0.08883446,0.08862373,-0.04529337,0.092180215,-0.05495695,0.033050954,0.03603018,0.045142602,-0.08879895,0.06547269,0.009566079,0.08661988,-0.03361561,-0.075234376,0.059192702,0.031943817,-0.022638928,0.063531026,-0.013745085,0.023939481,0.048693135,-0.080996715,0.06439635,-0.03399741,0.019817293,0.017062915,0.022445831,-0.06778771,-0.074219406,-0.07227972,0.07116696,0.04101388,-0.076558314,-0.063100494,0.07429212,-0.070394985,-0.027610216,0.09094502,-0.0031773103,0.030294418,0.08326113,-0.03535272,-0.049260452,0.004264408,-0.036720518,0.010141554,0.035217274,-0.010495717,0.01690335,-0.022100177,0.030236186,0.0011792068,-0.05319392,-0.050023425,-0.045349743,-0.026902622,-0.042226937,0.042484786,0.06331301,-0.0218791,0.013028373,-0.004000743,0.043785367,-0.04460497,-0.08887743,0.05051737,0.057869617,0.06671036,0.057500005,-0.00042693154,0.055706367,-0.03021617,0.0765039,0.058685932,0.055982243,0.017341841,0.04980003,-0.06706802,-0.06387567,0.064958416,-0.038993847,-0.06937349,-0.05792176,-0.054189384,-0.012927398,0.014103412,0.017711416,0.016518863,-0.0050262813,-0.045477152,-0.048338152,0.038629685,-0.034596384,-0.018982168,0.077304676,-0.06405729,-0.08038181,-0.0416978,0.037742242,-0.079651125,0.06429661,0.078552485,-0.08642822,-0.048157338,-0.092008814,-0.0654943,-0.04340512,-0.060755428,-0.029530667,0.0077636316,0.08221815,-0.022007387,0.041794848,0.021905227,0.015767418,-0.05581579,-0.03676611,-0.08808883,0.037492488,-0.018877381,-0.045039188,-0.08381249,-0.045062587,0.020533293,0.061223753,0.041040827,-0.098426335,0.057544235,0.034594364,0.04146028,0.0014991226,0.0511255,-0.023491908,0.06756127,-0.053084243,-0.07750307,0.012861499,-0.03666312,0.031076571,0.02827557,0.057478305,0.0059482604,0.03836851,-0.019977426,-0.049478453,0.06537882,-0.012062014,-0.075068176,0.074325316,-0.082654536,0.036283825,0.060190167,0.03230474,0.06530743,-0.05618668,-0.06456115,-0.014634914,0.0010795885,-0.004717951,0.0048935357,0.0049510896,0.035537858,0.06293514,0.008135859,0.04638836,0.011295105,0.054427296,0.05290188,0.041846704,0.068671696,0.050017938,-0.051372614,-0.06952192,-0.072851844,0.056588788,0.06355871,-0.05248888,0.08224915,-0.075552694,-0.04231911,-0.06847596,0.061142083,0.025522053,-0.07882625,0.058168333,-0.035484094,0.020893646,-0.09898367,0.018686188,0.008676053,-0.008583957,0.082010776,-0.0061157793,0.09039234,0.07794495,0.10420268,0.087976,0.06419267,-0.0001355739,0.004636461,0.003314503,-0.070068955,0.0166814,0.099572144,0.028205302,0.063876,-0.010631856,0.037126727,-0.0013226676,0.02022421,0.03327395,-0.0063284123,-0.025731921,0.040368877,0.07383615,-0.06270085,-0.0065505486,0.015442162,0.08119537,0.053009536,-0.0020230568,-0.0738138,-0.049041316,-0.061722495,-0.09278017,-0.030681513,0.045510635,0.054217733,0.029587787,-0.045409694,0.025654623,0.076758236,0.07161895,-0.036403753,-0.08701717,0.011081658,-0.07695991,0.0032038463,-0.06357804,-0.051668152,-0.009980536,0.038185153,-0.058359906,-0.04977174,0.044124022,0.05171802,0.063355,0.013866655,-0.039618894,0.098480925,-0.07978911,0.088975266,-0.06915691,-0.040482525,0.047612634,-0.049123444,0.05942125,0.055845663,0.0717481,0.041851252,0.04112788,-0.005841115,-0.060670406,0.07153727,-0.06463922,0.061454907,-0.057844747,0.08601508,-0.0388339,-0.007890426,-0.021227898,-0.015325926,-0.065801196,0.09282245,-0.06988603,0.09725391,0.030873729,0.07546595,0.032786552,-0.07655671,-0.0048658582,0.06639548,-0.06601156,-0.04471444,0.047595296,0.035178494,-0.027932862,0.08847166,-0.08007636,0.08234167,-0.06440124,-0.066509664,-0.033330716,0.0066103786,0.049575534,0.03514448,0.0901536,0.07157669,0.06704767,0.085814975,0.07046264,-0.053910498,0.09096688,-0.03147889,-0.04178818,-0.061688907,0.03990467,-0.038721047,0.046233553,0.010930044,-0.035736937,-0.070345804,-0.0053738505,-0.0017512372,0.06403176,0.09678694,-0.05174904,0.054292116,0.046642117,0.04659786,0.025563909,0.07201701,0.00046284279,-0.017011616,0.0515224,0.06014598,-0.067464255,0.014541891,-0.02199462,-0.08224716,-0.047040317,0.004903224,0.025029968,0.029441832,0.015768286,0.05428937,0.017783206,0.029944073,-0.060162324,-0.077149585,-0.026475778,-0.04700176,-0.014491837,0.056184296,-0.025201838,-0.0810178,0.054290697,-0.09771686,0.053975508,0.03482519,0.020162718,0.074379,-0.09149961,0.074333645,0.014593406,-0.04122297,-0.04448703,-0.07755174,-0.02715399,0.06949018,0.014693328,-0.07030879,0.065196805,-0.0005566742,-0.0010922386,0.078822896,-0.06767275,0.014784273,-0.06684673,0.04438115,0.061338022,0.024490274,0.07877118,-0.08145211,0.04818006,0.034003712,-0.03174511,0.07441285,-0.09139901,0.008106883,0.0702035,-0.065022446,0.014509712,-0.01138753,-0.053555995,0.063682385,0.052024476,-0.08245382,-0.073220946,0.027534338,-0.019347008,0.055830207,-0.026660744,-0.029672984,0.012568138,-0.05740371,0.05310991,0.02768168,-0.051253036,0.08826834,-0.054526236,0.07756339,0.08692124,-0.0050360598,-0.076703794,-0.07265248,-0.07987658,-0.045660436,0.00745407,-0.018035565,0.053010862,-0.028850237,0.028459225,0.03075122,0.01531056,0.06853097,-0.04338799,-0.0783155,0.08020602,-0.024015982,0.055168297,-0.046725642,-0.01398601,-0.03337842,-0.026847724,0.012798744,0.07660228,0.05779064,0.02175574,0.0344811,0.0030200556,0.042515934,-0.07644851,-0.034612864,-0.012437500059604645
0.047731712,0.0072989142,-0.07224395,-0.05920039,-0.06977779,-0.014598243,0.0047780243,-0.025273565,-0.011301978,-0.057570312,0.09238048,0.03359577,0.07565991,0.062457558,-0.037011553,-0.08058393,-0.017776633,-0.052155692,0.07157257,-0.07883048,0.063141815,-0.009218446,-0.09146075,-0.07914644,0.048728254,0.0024784417,-0.08388761,0.015543768,0.065649435,-0.0746962,0.0012540232,0.044086423,-0.095575795,-0.11064022,-0.04993665,-0.031844378,-0.029083233,-0.047653474,0.020870278,-0.057404507,0.015406469,-0.04272372,-0.029887578,-0.033719033,0.06668801,-0.05145209,0.0076669357,-0.06512928,0.018558405,0.0032845358,-0.035104252,0.03470245,-0.029948741,-0.05560882,0.034638062,0.005997023,0.05984226,0.02022187,-0.051442675,-0.024038902,-0.027245145,-0.05261779,-0.085179344,0.04054771,-0.048750598,-0.005624931,-0.062213153,0.05630569,-0.00520457,0.048085432,0.029481517,-0.021285009,-0.021560794,-0.09692047,-0.101687595,-0.035141304,-0.05814833,0.005540395,-0.011180825,-0.030430691,-0.0351149,-0.073509745,-0.035906956,-0.10126038,0.012308813,0.031393494,0.0065138186,-0.004685909,-0.04136662,0.07027623,0.02068475,-0.00949694,-0.014041509,0.012918577,-0.07996133,0.07503616,-0.046365842,-0.0047464757,0.059404965,-0.017490381,-0.06955837,0.060481098,0.02199997,-0.064619556,0.012097918,0.062242158,0.052255847,-0.034633484,-0.07067785,-0.09829525,0.05168843,0.07053638,0.08019943,0.03126064,-0.05242311,-0.029184911,0.073698506,0.051690973,0.03506492,0.08137622,0.034067806,0.030906737,-0.083489046,-0.021847587,-0.082046434,-0.018358579,-0.04449877,-0.06290193,0.040413514,0.038631797,0.061757933,0.044797692,0.08917006,-0.062574476,0.08504914,-0.036818773,-0.04225646,0.03382429,-0.033922944,-0.07284135,-0.024121273,0.04451341,0.090438694,0.039481964,0.07961596,-0.0011375209,-0.002376224,-0.0565155,-0.006663174,0.086098194,-0.027787015,0.004831521,0.095869444,0.0766316,0.07236776,0.066981204,-0.0788782,0.024001142,0.08801544,0.026803344,-0.030573655,0.02267324,0.0501791,0.06613312,-0.088799275,0.08102055,0.021383071,-0.08587686,-0.054302502,0.041749466,-0.01502052,-0.08305244,0.026238538,0.026543472,0.007475776,-0.058114227,0.05781398,0.014239333,0.017857797,-0.033214085,-0.021968722,-0.08773623,-0.0809022,0.00021064378,-0.03137298,-0.028122649,-0.015206939,0.026325675,-0.0687954,0.076579705,0.053704385,0.09271836,-0.07221602,0.026515061,0.06375504,0.070514016,0.080212146,0.05057797,-0.031955414,-0.059948485,0.063204795,0.019073976,-0.055854,-0.093101956,-0.014618783,0.06199145,-0.049222242,-0.017740041,0.066366315,0.071674265,-0.03261529,-0.07758183,-0.07914294,0.029155659,0.029030882,-0.081598125,0.04728177,-0.002895565,-0.040224433,0.05776135,-0.059556022,-0.06678148,0.040595844,0.07747237,-0.030619357,0.031137666,-0.019314205,0.06600442,0.058181982,-0.087538965,-0.028968764,0.018028287,-0.051854018,-0.07340347,-0.08661853,-0.088482216,0.024857419,-0.09512631,-0.07807514,0.053173944,-0.05748444,-0.015859216,-0.011767295,-0.074406214,0.047212236,-0.05055059,0.032365303,-0.08212751,-0.016683968,0.054912426,-0.005107391,-0.073988214,0.042267438,0.03930748,-0.03808476,-0.09411273,0.038015656,0.089902356,0.056197807,0.04345657,0.07547307,0.120966375,0.016661633,0.022933101,-0.042822216,-0.06061292,0.050983448,0.0882485,-0.032819573,-0.06570526,0.083746254,0.034487724,-0.05547161,-0.061608642,0.013081162,-0.056864675,-0.030375816,-0.09516302,-0.01057035,0.014584723,-0.06398536,-0.07261971,-0.06447686,-0.06770328,0.019361926,0.07569147,0.015248167,0.05752036,-0.03144703,-0.05045896,-0.0049234037,-0.0079515185,-0.00956517,0.063423015,-0.09693564,0.039748628,-0.026196776,-0.029735336,-0.061720487,-0.02846909,-0.03095802,-0.06580448,-0.0610911,0.05687883,-0.021142751,0.006697731,-0.028194688,-0.084144145,0.05124481,0.0488336,0.0025257522,-0.007538879,0.03894389,-0.022787157,-0.026973512,-0.001908552,-0.053215336,-0.065830566,0.040368676,-0.014122876,-0.095676646,-0.009580871,0.046607785,0.018852532,0.030300027,0.07195248,0.06411335,0.036041107,-0.08481677,-0.08126078,-0.046023972,-0.05452529,-0.076595254,-0.024965221,-0.033225115,-0.027102392,-0.009735506,-0.02278179,-0.05273085,0.023611873,0.069182426,-0.03246429,-0.04711615,-0.027421733,-0.034487613,0.06207953,0.0396842,0.055660233,-0.03991246,-0.033445243,0.0005935037,0.048431445,-0.07151922,0.013573859,-0.080817655,-0.048405055,-0.049940042,0.066623814,-0.029473908,-0.10063251,-0.031547595,-0.08484209,-0.061485685,-0.06408368,-0.08802801,0.06827982,0.031237131,-0.08763716,-0.07274368,-0.08041199,0.059959263,-0.02270508,0.02095464,0.07196803,-0.0045055053,-0.039009586,0.032812946,0.08548854,-0.040073246,0.018020911,0.0636293,-0.023506649,-0.04217182,0.016531873,-0.05873456,0.06311321,0.08267715,0.05972482,0.084253535,-0.016161762,0.08883503,0.063634254,-0.0677902,0.069890045,-0.051407628,-0.008688238,0.09743281,-0.04790313,0.07199016,0.088172555,0.06426909,0.0673651,-0.07381923,0.055670235,0.049038656,-0.043493185,0.07036632,0.06557001,0.032528248,0.026419492,-0.030007783,0.09917532,-0.07142364,0.017691437,0.03711849,-0.057108484,0.048835546,0.00730926,-0.019163854,-0.019107968,0.0871493,0.03144033,-0.043876503,0.09375604,0.07190099,-0.0044627986,0.007953227,0.061707493,0.09394076,-0.057382543,0.048505325,-0.019392237,0.020732095,-0.030736966,-0.025248816,0.06786135,0.08667439,-0.0011704792,0.047669727,0.007469288,-0.028372923,0.0004382041,-0.06539073,0.043844007,-0.07737545,0.06394206,0.05240606,0.014635397,-0.011252328,0.0334745,0.07135846,-0.039581783,-0.048780423,0.013165377,-0.035114408,0.03493589,0.05360361,-0.034858387,0.029358396,0.05390279,0.037460197,0.07500551,0.019809775,-0.040461205,0.020988908,0.0854565,-0.024030717,0.07344637,0.049137324,-0.07688177,-0.048579507,-0.012084418,0.08549437,0.026687566,0.017468065,-0.0678613,-0.038312986,0.08745316,-0.01560202,-0.041831195,0.057016272,0.029400604,0.039689366,0.07431388,0.05673535,0.016624624,0.04432415,-0.04106503,0.017017853,0.05048751,0.0829198,-0.024290139,-0.038899735,0.009563228,0.05347822,0.04509698,0.07106814,0.0063704727,0.05172107,0.016365783,-0.049847543,-0.01905997,0.06330388,-0.08723718,0.06819231,0.04048723,0.013780402,0.03953531,-0.07804211,-0.045105506,-0.075294435,-0.075178675,0.04477272555232048
0.010294087,0.08812789,0.06723498,0.04896128,0.019907625,0.048078015,-0.043202743,-0.010310175,0.0011906335,0.08026488,0.0669246,0.081946895,0.08287972,-0.00710516,0.0627154,0.047330476,0.07395987,-0.00026154928,0.07673448,0.05527046,0.042988833,0.098904066,0.009451442,-0.06155168,0.028546318,0.05272198,0.06293976,0.08939193,-0.08655748,-0.08082785,-0.0949049,0.017441412,-0.09093128,0.0045925817,-0.0009924502,-0.0020663259,-0.09875072,-0.043907534,-0.022610953,0.08508002,0.027112924,0.016323898,-0.020455891,-0.024702122,-0.039137706,-0.0140393805,-0.0032338847,-0.033786815,-0.04347351,-0.08812792,0.06399505,-0.09334504,0.019051962,-0.029346138,0.058704644,-0.083111726,-0.026354896,-0.06566153,0.067869015,0.031322353,0.07953674,-0.048047107,-0.08201225,-0.079331234,0.016468346,0.013850323,-0.002377589,0.023924615,0.063813366,0.04903581,-0.035235155,-0.024053756,0.07877287,-0.06795645,0.039233394,-0.014110067,-0.05605864,-0.04359567,-0.020866659,0.046883695,0.0056824763,0.009071814,0.055341937,0.06915436,-0.051424995,0.098283336,0.081831425,-0.062090427,-0.0008925526,0.02295632,0.035348237,-0.055040993,0.015021033,0.032115076,0.041745543,-0.04426443,-0.07758466,-0.070242144,-0.091818646,-0.0625105,0.06411438,0.040625796,-0.04163677,0.08370273,-0.07989121,-0.094275534,-0.048359904,-0.042272035,0.041470774,0.06391654,-0.020483425,-0.059245512,0.07454627,-0.0322868,-0.0535649,-0.08684221,-0.051663123,-0.07455785,0.039401613,-0.0041261557,0.072340414,0.07539811,0.07132096,-0.08023457,0.012052604,-0.03756169,0.01727733,0.03565223,-0.054204665,-0.0058046035,-0.0318416,0.0716873,0.07310712,-0.03207913,-0.049265098,0.075442314,-0.033277445,0.010603079,-0.0056823995,-0.0068849395,-0.059973616,0.06876115,-0.06526325,2.831009e-06,-0.019612672,0.004927679,0.022243433,-0.054702934,-0.046524994,0.028573984,-0.04458627,-0.07040942,0.028272083,-0.09397297,-0.027193679,0.08295231,0.078191295,0.04499977,0.028228786,-0.06165204,0.06418168,-0.061647058,0.038206145,0.03330634,0.0015345258,0.044655126,0.0101527395,-0.07970211,-0.043278556,-0.0381565,-0.016508777,0.015657086,-0.08007382,0.06356708,-0.00042537463,-0.045807097,-0.028052213,-0.06111867,0.012047502,0.049256176,-0.07598066,-0.018255843,0.03992262,0.052486714,0.07926663,0.072292864,0.04661373,-0.018043615,-0.063177355,0.0036951525,-0.028479038,-0.0125595,-0.02456017,0.009500122,-0.08708525,0.08030146,0.039549593,-0.011617872,-0.011305102,-0.04376392,0.026863255,-0.062194675,0.07697624,-0.018292284,0.04616304,-0.0009367043,0.043579318,-0.019233964,0.007514951,0.032385346,-0.0572836,-0.07623105,-0.036936224,-0.008579321,0.06622273,-0.04596774,0.057030536,0.014811573,0.02568134,0.0606587,-0.06214117,0.08644363,0.05021786,0.08514292,0.09550238,-0.010180416,0.028114522,0.057497427,-0.0786416,0.0522643,0.062262263,-0.050641753,0.09165386,-0.00953208,-0.056264926,-0.031925805,0.08692349,-0.008098394,-0.08278999,-0.049023956,0.057366837,-0.07569737,0.05948943,-0.039581873,-0.08026899,-0.01787875,-0.05800496,0.032777794,0.079817556,0.056502916,-0.015513669,0.0387203,0.036537934,0.027557554,-0.07831449,0.075665966,0.053017125,0.10471769,-0.0287249,0.032558117,-0.03608545,0.01520752,0.0141428355,-0.041387994,-0.028208893,-0.032384485,0.03407024,0.049031705,0.05138376,-0.032576263,0.008552793,0.077791624,0.05876408,0.020296272,-0.033316854,-0.007242418,0.011995744,0.03996006,0.0856062,-0.01443264,0.0060980488,0.08314175,0.06791257,-0.01764968,0.084929034,0.06882233,-0.021508057,0.095747456,-0.027631942,-0.018143315,-0.06469481,-0.037846785,-0.06506278,0.05099017,0.009213219,0.073886454,-0.007992037,0.041299477,-0.024318175,0.043787498,-0.04733046,-0.029505132,-0.0074639902,0.041034933,0.020189527,0.057145454,-0.057743274,-0.02972485,0.03573053,0.0626679,0.05496387,0.057290316,-0.053216998,0.004260995,0.073614635,0.07024261,0.009187751,0.06963563,0.07040668,-0.04887484,-0.054833587,-0.012999998,-0.04246469,-0.07347502,0.08788564,0.077036195,0.043464717,0.042314697,0.119365215,-0.032304402,-0.066378966,0.099926084,0.0934332,0.051352765,-0.0124980705,0.046106525,-0.033567805,0.049309567,0.07356495,-0.018611949,0.10867447,0.0840888,-0.029036343,0.025567628,-0.023423687,-0.008758734,0.03520485,-0.032132443,0.059604693,0.061465833,0.067231365,0.067327425,0.08148444,-0.08459762,-0.096084945,0.03939752,-0.04449776,-0.024265384,0.0023209976,-0.019912157,0.016758347,0.029737666,0.030966075,-0.03325317,0.06914664,-0.065436065,0.018803822,0.020738553,0.04198408,-0.059267685,0.05543632,-0.058185726,0.008865351,0.08899473,-0.011730988,-0.08169838,0.045952275,0.02070049,-0.025291022,-0.03177923,-0.06595933,0.0129542975,0.00029653026,0.058429748,-0.04314662,0.0024907177,-0.09010789,-0.07465585,0.06150585,-0.0739232,0.04755609,-0.014063418,0.021671828,0.010832845,0.057960607,0.09177323,-0.080286324,0.03723723,-0.07174733,-0.045933865,0.08576017,-0.054871675,0.051671352,0.07385661,0.09566228,0.069518104,0.050859578,-0.03600507,-0.053401016,-0.03420854,-0.010735008,-0.047880802,-0.07119753,-0.07543586,0.024507066,0.027118828,-0.047729738,-0.019953378,-0.045135207,0.0780029,-0.037784167,0.042957414,0.038517907,0.06495936,-0.0065907375,-0.02086822,0.0017734603,-0.014604892,0.08044336,0.094679385,0.0073901745,0.019968715,0.012760109,-0.04701144,-0.03783387,-0.017875629,-0.036194324,0.060486708,0.009959004,0.056660242,-0.03870567,0.017909493,0.08617223,0.08127195,0.08614261,0.050133854,-0.056546785,0.023146078,0.071669444,-0.005537446,-0.009390678,0.03247647,0.0154442,0.06898638,-0.034974206,0.06881903,-0.020457521,-0.042626273,0.053527597,0.09292572,-0.08022205,0.0077129183,-0.074047096,0.009080982,-0.03761869,0.02581304,0.082515076,0.044289913,-0.006208975,-0.045990206,0.07220633,-0.07298775,-0.045577593,-0.03976822,-0.068221256,0.062868364,0.07997073,-0.058006197,-0.014790493,0.04355647,0.08152384,0.039061498,0.05482477,0.08023792,-0.06977157,0.0030121568,0.063554995,-0.051207285,-0.07297551,0.08226882,0.06650715,0.0030627635,-0.028834216,-0.089314416,0.029725825,-0.013434407,-0.018822681,0.061492708,0.036761463,0.017968915,0.013285079,-0.010215558,-0.04101847,0.074107304,-0.011174634,-0.045732785,-0.08158637,-0.023480603,0.0012329137,-0.009347109,-0.09097099,-0.015344651,0.04123156890273094
